%YAML:1.0
my_svm: !!opencv-ml-svm
   svm_type: C_SVC
   kernel: { type:LINEAR }
   C: 3.1250000000000000e-002
   term_criteria: { epsilon:2.2204460492503131e-016, iterations:1000 }
   var_all: 20
   var_count: 20
   class_count: 4
   class_labels: !!opencv-matrix
      rows: 1
      cols: 4
      dt: i
      data: [ 0, 1, 2, 3 ]
   sv_total: 6
   support_vectors:
      - [ -8.95288959e-002, -2.58144379e-001, -4.45830673e-001,
          4.37514454e-001, 2.39601731e-002, 2.75060773e-001,
          3.79168242e-002, 3.98163125e-002, 1.25928789e-001,
          1.03964455e-001, 1.33491471e-001, 2.46031233e-003,
          2.61165723e-002, -9.08357129e-002, 1.18250795e-001,
          2.78994106e-002, -7.52344429e-002, 6.00942224e-003,
          2.23161979e-003, 5.62068373e-002 ]
      - [ -1.38130233e-001, 1.32330954e-001, 8.17995742e-002,
          6.52062953e-001, -1.86182886e-001, 1.85542405e-001,
          8.64156187e-002, 5.46507724e-003, 4.40149382e-002,
          3.25525366e-002, 1.42955437e-001, 8.45653191e-002,
          -6.72254860e-002, -2.22490225e-002, 1.49871454e-001,
          1.25589132e-001, -7.00331107e-002, 1.37532805e-003,
          -8.99534207e-003, 1.01480693e-001 ]
      - [ -2.93392211e-001, -2.76597053e-001, 2.27004796e-001,
          3.50953341e-001, 1.34429634e-001, 1.15157612e-001,
          -1.41369051e-003, 7.46509060e-002, 1.18151329e-001,
          8.15431699e-002, -7.83521682e-002, 4.17897031e-002,
          -1.06129959e-001, -2.53647882e-002, 9.27041098e-003,
          5.38341515e-002, -5.87612279e-002, 3.74899544e-002,
          1.90595537e-003, 1.85133517e-002 ]
      - [ 4.10851501e-002, 4.79059517e-001, 5.63276887e-001,
          3.12795937e-002, -2.48154476e-001, -1.21350929e-001,
          -9.14175883e-002, -4.93502580e-002, -2.60406047e-001,
          -8.03327411e-002, 6.68481067e-002, 6.36099428e-002,
          2.25218665e-002, 9.40075964e-002, -1.57194363e-003,
          7.00214729e-002, -3.50992829e-002, 4.66455258e-002,
          3.90467942e-002, -3.56792882e-002 ]
      - [ -2.30131820e-001, 6.87354356e-002, 5.75761497e-001,
          -1.15110412e-001, 1.24576084e-001, -6.14616200e-002,
          -6.41391724e-002, -4.98344423e-003, 1.66637881e-003,
          6.62773550e-002, -1.32230014e-001, -5.98096736e-002,
          -1.19141325e-001, -9.83502269e-002, 8.51911213e-003,
          6.24527112e-002, -3.45609300e-002, 1.63862966e-002,
          -2.21332703e-002, 6.95518963e-003 ]
      - [ -2.35451058e-001, -3.55459154e-001, 2.31341869e-001,
          -6.46027923e-002, 2.60313958e-001, 1.33201396e-002,
          5.31215072e-002, 5.37859574e-002, 1.91229597e-001,
          1.30893707e-001, -2.55386949e-001, -6.35842085e-002,
          -1.67112261e-001, -7.72924796e-002, -4.97292960e-003,
          8.08596835e-002, -6.27206936e-002, 9.43760481e-003,
          5.01772873e-002, 5.88674657e-003 ]
   decision_functions:
      -
         sv_count: 1
         rho: 1.4104689864826911e-001
         alpha: [ 1. ]
         index: [ 0 ]
      -
         sv_count: 1
         rho: 7.5914498607413028e-001
         alpha: [ 1. ]
         index: [ 1 ]
      -
         sv_count: 1
         rho: 1.6915719244336117e-001
         alpha: [ 1. ]
         index: [ 2 ]
      -
         sv_count: 1
         rho: 1.8766208517268676e-001
         alpha: [ 1. ]
         index: [ 3 ]
      -
         sv_count: 1
         rho: -2.0794613898736219e-001
         alpha: [ 1. ]
         index: [ 4 ]
      -
         sv_count: 1
         rho: -5.2733625054329059e-001
         alpha: [ 1. ]
         index: [ 5 ]
