%YAML:1.0
my_svm: !!opencv-ml-svm
   svm_type: C_SVC
   kernel: { type:LINEAR }
   C: 1.3125000000000001e-001
   term_criteria: { epsilon:2.2204460492503131e-016, iterations:100 }
   var_all: 25
   var_count: 25
   class_count: 4
   class_labels: !!opencv-matrix
      rows: 1
      cols: 4
      dt: i
      data: [ 0, 1, 2, 3 ]
   sv_total: 6
   support_vectors:
      - [ -2.98835963e-001, -3.65141749e-001, -8.14219117e-001,
          -8.31714153e-001, 1.53973429e-002, 1.28155440e-001,
          2.47239500e-001, 2.64620155e-001, 8.26948322e-003,
          -1.43039897e-001, 2.17026442e-001, 7.63111264e-002,
          6.39827996e-002, -1.24902494e-001, -1.38872843e-002,
          4.70748544e-002, 8.03063996e-003, -7.41284192e-002,
          -1.93608534e-002, 1.67226475e-002, -5.71882799e-002,
          -9.61521864e-002, 3.60290683e-003, -2.60059349e-002,
          -2.41207723e-002 ]
      - [ -2.54947543e-001, 2.17064410e-001, -3.11488748e-001,
          -1.29563355e+000, 5.47852144e-002, 4.21281964e-001,
          1.58024669e-001, 3.61465007e-001, -1.75330535e-001,
          -1.80178061e-001, 2.83038676e-001, 1.80541247e-001,
          -5.87144345e-002, -6.93712085e-002, 6.76549822e-002,
          8.51556808e-002, 1.84102599e-002, -1.08903199e-001,
          9.26354378e-002, 4.13644910e-002, -2.22470891e-003,
          5.69312535e-002, 3.25811096e-002, -3.20735350e-002,
          -1.08944718e-002 ]
      - [ -3.86608601e-001, 4.98278849e-002, 1.40972892e-002,
          -4.60419476e-001, 2.70618409e-001, -1.30971875e-002,
          4.02836800e-001, 1.52825728e-001, -2.69182295e-001,
          2.02255875e-001, 3.61733511e-002, 2.14205474e-001,
          1.95933245e-002, -3.50369476e-002, 2.45978497e-002,
          3.37692760e-002, -2.06025895e-002, -1.75801013e-002,
          -1.19901693e-003, -9.03270731e-004, 1.09339273e-002,
          -1.96471941e-002, 2.41920929e-002, 6.36865292e-003,
          -4.68405932e-002 ]
      - [ 2.03315437e-001, 7.98618793e-001, 8.66346776e-001,
          -3.32024097e-001, -4.03448254e-001, -2.71726102e-001,
          -2.65184522e-001, -2.33243838e-001, -4.21682112e-002,
          -1.32223010e-001, -2.00162232e-001, 4.48599905e-002,
          6.26586229e-002, -1.02086179e-001, -5.47071313e-003,
          4.07330133e-003, -7.59092271e-002, 4.04759534e-002,
          -4.77390327e-002, 1.21578118e-002, 1.02850899e-001,
          4.75089066e-002, 2.04143859e-002, -1.59896985e-002,
          4.69176024e-002 ]
      - [ -3.31460685e-001, 3.28242272e-001, 1.00102019e+000,
          1.32852197e-001, 2.25256115e-001, -8.10185564e-004,
          1.30098015e-002, 3.98169691e-003, -1.25734031e-001,
          2.91016281e-001, 4.92169298e-002, 1.86582014e-001,
          7.41557032e-002, 5.61948940e-002, 3.51032242e-002,
          4.98975329e-002, -5.05446158e-002, -5.56204356e-002,
          -5.16864052e-003, 4.62998124e-003, -3.73634766e-003,
          -2.19879206e-002, -1.75665021e-002, -1.89147852e-002,
          -2.86884680e-002 ]
      - [ -4.40790802e-001, -2.68922508e-001, 1.38941616e-001,
          -1.25053644e-001, 2.64363497e-001, 1.35408893e-001,
          3.09864461e-001, 1.92177504e-001, -2.15600163e-001,
          2.88708746e-001, 5.12882769e-002, 8.02386701e-002,
          5.07764257e-002, 2.89675966e-002, -1.49552986e-001,
          4.33778279e-002, -6.39369898e-003, 8.89763907e-002,
          2.06222180e-002, 5.94711746e-004, 1.67302676e-002,
          -5.21407872e-002, -9.11809206e-002, -3.64916660e-002,
          -8.56670737e-002 ]
   decision_functions:
      -
         sv_count: 1
         rho: 2.6822255398067507e-001
         alpha: [ 1. ]
         index: [ 0 ]
      -
         sv_count: 1
         rho: 9.8725657192928473e-001
         alpha: [ 1. ]
         index: [ 1 ]
      -
         sv_count: 1
         rho: -2.3711509148160156e-001
         alpha: [ 1. ]
         index: [ 2 ]
      -
         sv_count: 1
         rho: 3.3843231981143213e-001
         alpha: [ 1. ]
         index: [ 3 ]
      -
         sv_count: 1
         rho: -3.0873175081709742e-001
         alpha: [ 1. ]
         index: [ 4 ]
      -
         sv_count: 1
         rho: -9.3729096560897351e-001
         alpha: [ 1. ]
         index: [ 5 ]
