%YAML:1.0
my_svm: !!opencv-ml-svm
   svm_type: C_SVC
   kernel: { type:LINEAR }
   C: 1.3125000000000001e-001
   term_criteria: { epsilon:2.2204460492503131e-016, iterations:100 }
   var_all: 25
   var_count: 25
   class_count: 4
   class_labels: !!opencv-matrix
      rows: 1
      cols: 4
      dt: i
      data: [ 0, 1, 2, 3 ]
   sv_total: 6
   support_vectors:
      - [ -2.11152155e-003, 2.35611876e-003, -5.63502312e-004,
          -2.82347464e-004, -4.29631938e-004, -1.31068681e-003,
          -1.17796438e-003, 5.92535129e-004, -2.71310892e-005,
          -9.49915557e-004, 5.82235574e-004, 4.02010228e-005,
          -3.70470458e-004, -7.97550092e-005, 4.47517741e-005,
          3.78490309e-004, 2.25451186e-005, 7.99119473e-004,
          4.46448044e-004, -1.93394255e-004, 1.76515110e-004,
          -1.14457514e-004, -4.49072133e-004, 2.83038506e-004,
          -6.24118111e-005 ]
      - [ -3.81747494e-003, 4.57852817e-004, 2.40885373e-003,
          2.92678596e-003, 7.97679997e-004, 1.88839214e-003,
          -3.08433967e-003, 8.13176390e-004, 6.49495400e-004,
          -2.98571959e-003, 2.08289432e-003, -3.23573104e-003,
          -1.80967164e-003, 2.49889493e-003, 1.64534446e-004,
          4.91328770e-004, 1.36104180e-003, -1.47609666e-004,
          1.14775111e-003, 8.28085758e-005, -2.56578741e-003,
          3.18656384e-004, 4.19325399e-004, 1.03639148e-003,
          -3.73245188e-004 ]
      - [ -1.68287463e-003, 8.79310028e-005, 1.19203166e-003,
          1.32902769e-005, 8.55622871e-004, 1.27656711e-003,
          -1.78743014e-003, 3.82454833e-004, 2.31375964e-003,
          -2.06144759e-003, 8.80803331e-004, 1.52928056e-004,
          -1.18221494e-003, 2.70370103e-004, -2.48657831e-004,
          3.04287416e-004, 4.07884727e-005, 6.29162183e-004,
          7.04009959e-004, 3.70368740e-004, -1.55041285e-004,
          1.38619434e-004, -8.79087820e-005, 5.29469107e-004,
          -5.68152755e-005 ]
      - [ 7.80381670e-004, -2.24083033e-003, 5.22452081e-003,
          -3.75899457e-004, 6.49000358e-005, -1.55959366e-004,
          2.26518954e-003, 2.99159554e-003, -1.60892727e-003,
          -5.08534838e-004, -4.59345989e-003, 1.11165934e-003,
          -1.43960654e-003, -4.56079794e-003, -2.64935788e-005,
          -5.84413705e-004, 1.24898914e-003, 7.12339161e-003,
          -8.69479147e-004, -1.88596442e-003, 4.74300329e-003,
          4.86512610e-004, 3.85455904e-003, -3.00682196e-003,
          5.31308120e-003 ]
      - [ 3.65510496e-004, -4.15571826e-003, 8.45831819e-004,
          -2.57415726e-004, 1.87416817e-003, 1.29092613e-003,
          9.73443792e-004, -1.59201084e-003, 4.77407710e-004,
          7.51614978e-004, 8.45420407e-004, 1.40787146e-004,
          3.07449482e-005, 2.91196280e-004, 4.59956413e-004,
          4.66376950e-004, -5.53408696e-004, 6.28857291e-004,
          3.26541078e-004, 4.44031466e-004, -1.53623012e-004,
          6.25857909e-004, -3.74752475e-004, -1.99586997e-004,
          -4.16544906e-004 ]
      - [ -1.73637504e-003, -3.34548927e-003, 5.71743934e-004,
          -1.76499725e-006, 2.29306798e-003, 1.31428684e-003,
          9.20669991e-004, -4.37901728e-003, 4.71991301e-003,
          -3.71232600e-004, 5.52157033e-003, 3.85384494e-003,
          -4.70552314e-003, -3.46327470e-005, -1.92618417e-003,
          -1.93845233e-004, 1.15226918e-004, -2.78170314e-003,
          2.92208255e-003, 2.61436892e-003, 1.96238048e-003,
          4.62653901e-004, -1.33185263e-003, 2.79627088e-003,
          -1.03100459e-003 ]
   decision_functions:
      -
         sv_count: 1
         rho: 4.1808982939491163e-001
         alpha: [ 1. ]
         index: [ 0 ]
      -
         sv_count: 1
         rho: 2.0928214396293381e+000
         alpha: [ 1. ]
         index: [ 1 ]
      -
         sv_count: 1
         rho: 3.0406525468548629e-001
         alpha: [ 1. ]
         index: [ 2 ]
      -
         sv_count: 1
         rho: 6.0372896870971571e-001
         alpha: [ 1. ]
         index: [ 3 ]
      -
         sv_count: 1
         rho: -2.5336017660005533e-001
         alpha: [ 1. ]
         index: [ 4 ]
      -
         sv_count: 1
         rho: -1.9394642019635384e+000
         alpha: [ 1. ]
         index: [ 5 ]
