%YAML:1.0
my_svm: !!opencv-ml-svm
   svm_type: C_SVC
   kernel: { type:LINEAR }
   C: 5.0000000000000000e-001
   term_criteria: { epsilon:2.2204460492503131e-016, iterations:100 }
   var_all: 30
   var_count: 30
   class_count: 4
   class_labels: !!opencv-matrix
      rows: 1
      cols: 4
      dt: i
      data: [ 0, 1, 2, 3 ]
   sv_total: 6
   support_vectors:
      - [ -1.61665236e-003, -2.41241814e-003, -4.57656774e-004,
          1.17909920e-003, 2.77931266e-003, 8.73179873e-004,
          -7.21921504e-004, 1.49470952e-003, -2.81100301e-003,
          2.05159988e-004, -4.38620715e-004, 1.37358101e-003,
          -5.58009779e-004, -8.14918545e-004, 4.20836062e-004,
          7.13993155e-004, -1.09513217e-004, -1.85381703e-003,
          -5.66975039e-004, -2.40313002e-005, 9.03815904e-004,
          -3.15699348e-004, -4.03578102e-004, -6.78900760e-005,
          3.38477141e-004, 2.51186604e-004, -1.20656521e-004,
          -2.71821136e-005, 1.35023191e-004, 9.32158146e-005 ]
      - [ -1.35005591e-003, -1.27143611e-003, 2.64700595e-003,
          1.76021655e-003, 1.68242352e-003, 1.54493249e-003,
          -2.75858468e-003, 3.04170605e-003, -3.36494180e-003,
          9.28683847e-004, -5.67736861e-004, 1.52557553e-003,
          -2.48800789e-004, 1.42891053e-003, -3.58779034e-005,
          1.55993446e-003, -6.86922693e-004, -7.90772843e-004,
          7.72905361e-004, -2.52094236e-004, 5.06398908e-004,
          4.97201749e-004, 5.35614497e-004, 2.26949094e-004,
          4.75393645e-005, 4.31719440e-004, -7.50249834e-004,
          -2.46255222e-004, 1.93626765e-004, -5.08674653e-004 ]
      - [ -1.87322684e-003, 1.80202493e-004, 8.08636891e-004,
          5.08983561e-004, 1.98786822e-003, 2.45940359e-003,
          -6.57199707e-004, 2.24638658e-004, -1.23718625e-003,
          -7.59481569e-004, -1.91519139e-004, -3.54409771e-004,
          2.38842069e-004, 6.27861009e-004, 4.69336665e-005,
          1.44485413e-004, -1.40334632e-005, -2.35510117e-004,
          -3.29083181e-004, -6.91057503e-005, -3.08420422e-005,
          -5.33474049e-005, 1.47513900e-004, -4.09237226e-004,
          -8.15676976e-005, 5.55945917e-005, -1.46080522e-004,
          1.26943312e-004, 1.84608391e-004, -3.26277484e-004 ]
      - [ 1.83415075e-003, 4.10525873e-003, 3.18384916e-003,
          4.31795692e-004, -7.65244418e-004, -5.22637856e-004,
          4.23392426e-004, 2.48660939e-003, -1.71975838e-003,
          5.99276647e-003, -3.76980938e-003, 3.94806406e-003,
          6.13555778e-003, -2.10611476e-003, -5.79438033e-003,
          -5.42879607e-005, -3.57620511e-003, 1.62347930e-003,
          5.31292381e-003, -4.79524536e-003, -4.80229547e-003,
          5.48176980e-003, -1.72264094e-003, -2.67023523e-003,
          1.03900558e-003, -2.87554576e-003, -4.89065016e-004,
          1.69094047e-003, 7.72012339e-004, 3.63108033e-004 ]
      - [ -1.44428993e-003, 3.49981803e-003, 2.88208321e-005,
          3.57837795e-004, 2.00396217e-003, 1.42255158e-003,
          2.00563506e-003, -1.33647514e-003, 7.77373440e-004,
          -8.10067213e-005, 4.03969374e-004, -3.97453230e-004,
          -2.69724056e-004, -4.79372720e-005, 7.69229606e-004,
          -5.78104053e-004, 6.20574981e-004, 8.43113696e-004,
          -7.66876969e-004, 3.44155764e-004, -2.41741698e-004,
          -2.35850421e-005, 1.26106461e-004, 2.16316781e-004,
          -1.81183277e-005, 1.11310175e-004, -1.91605461e-004,
          1.51461745e-006, 5.20981575e-006, -1.17218471e-004 ]
      - [ -2.03396752e-003, 3.00087803e-003, -5.44021488e-004,
          -1.23786100e-004, 2.05960008e-003, 2.36956426e-003,
          3.11175431e-003, -2.63133203e-003, -2.55906751e-004,
          -1.26951048e-003, 1.27560040e-003, -3.32494709e-003,
          -1.43538194e-003, 4.07993415e-004, -9.67060390e-004,
          -6.83851831e-004, -1.29223976e-003, 2.20122485e-004,
          -1.40705612e-003, -7.33500172e-004, -1.05456717e-003,
          -1.25485426e-003, 1.29090957e-004, 1.13589042e-004,
          2.85628717e-004, 7.43040466e-004, -8.30571458e-004,
          8.50722354e-005, 1.00097212e-004, -2.91299744e-004 ]
   decision_functions:
      -
         sv_count: 1
         rho: 1.1705979495326715e+000
         alpha: [ 1. ]
         index: [ 0 ]
      -
         sv_count: 1
         rho: 1.4234271492988844e+000
         alpha: [ 1. ]
         index: [ 1 ]
      -
         sv_count: 1
         rho: 3.0558955026630746e-001
         alpha: [ 1. ]
         index: [ 2 ]
      -
         sv_count: 1
         rho: -8.7422818019950457e-002
         alpha: [ 1. ]
         index: [ 3 ]
      -
         sv_count: 1
         rho: -9.0346886577253993e-001
         alpha: [ 1. ]
         index: [ 4 ]
      -
         sv_count: 1
         rho: -1.2804680747753261e+000
         alpha: [ 1. ]
         index: [ 5 ]
