%YAML:1.0
my_svm: !!opencv-ml-svm
   svm_type: C_SVC
   kernel: { type:LINEAR }
   C: 50.
   term_criteria: { epsilon:2.2204460492503131e-016, iterations:100 }
   var_all: 2550
   var_count: 2550
   class_count: 3
   class_labels: !!opencv-matrix
      rows: 1
      cols: 3
      dt: i
      data: [ 0, 1, 2 ]
   sv_total: 3
   support_vectors:
      - [ 3.68583369e-006, -9.98737378e-005, 3.14912613e-005,
          -1.06837091e-004, 9.52562332e-005, -7.18497031e-005,
          1.13382637e-004, -9.78649769e-006, 6.31683288e-005,
          -7.01468161e-005, 4.42552046e-005, -1.22231839e-004,
          1.05937223e-004, -1.18626172e-004, 1.75367633e-004,
          -1.09288689e-004, 2.45525385e-004, -5.10030877e-005,
          8.56839688e-005, -2.20826551e-004, 9.99527911e-005,
          -1.95467030e-004, 1.01356214e-004, -1.58327981e-004,
          1.04470004e-004, -1.58759620e-004, 1.34164176e-004,
          -1.51357686e-004, 1.07058637e-004, -1.35555412e-004,
          8.73657918e-005, -1.16126001e-004, 9.34524505e-005,
          -1.45674392e-004, 3.84326013e-005, -1.44266771e-004,
          6.16706166e-005, -1.44657868e-004, 5.77314968e-005,
          -1.22581332e-004, 8.17721739e-005, -1.16342242e-004,
          1.72898799e-004, -1.55801128e-004, 8.50783690e-005,
          -7.13589689e-005, 3.00945285e-005, -4.35411057e-005,
          4.68359176e-005, -1.71859618e-004, 1.22986865e-004,
          -1.55571455e-004, 1.53471730e-004, -1.27086852e-004,
          1.88157297e-004, -1.48457388e-004, 1.65396283e-004,
          -8.15489984e-005, 1.08588960e-004, -8.58500935e-005,
          2.86921480e-004, 1.52404798e-004, 1.74710731e-004,
          -2.03389300e-005, 6.27893824e-005, -1.24465689e-004,
          8.43980888e-005, -1.19233046e-004, 1.19882003e-004,
          -1.52795808e-004, -4.16087350e-005, -6.28171838e-005,
          -2.25015261e-004, 1.33954280e-004, -5.52424353e-005,
          -5.65688642e-005, 1.01782040e-004, -1.25769133e-004,
          8.77034036e-005, -1.16274517e-004, 7.34702917e-005,
          -9.09237642e-005, 1.69362887e-004, -5.11626386e-005,
          2.94944854e-004, 9.38193552e-005, 6.47240740e-005,
          -6.59253637e-005, 8.32181322e-005, -9.00369123e-005,
          1.09320703e-004, -7.81123963e-005, -2.26808144e-004,
          6.89562657e-005, 9.17953075e-005, -2.39732923e-004,
          7.20428507e-005, -2.37501779e-004, 7.11471585e-005,
          -2.05154269e-004, 2.78054267e-005, -6.96334973e-006,
          9.15704004e-005, 2.80240383e-005, 1.09696804e-004,
          9.00872401e-005, 5.94824960e-005, 2.97269216e-005,
          4.05693718e-005, -2.23581064e-005, 1.02251390e-004,
          -1.87524292e-005, 1.71681808e-004, -9.41495000e-006,
          2.41839545e-004, 4.88706501e-005, 8.19981360e-005,
          -1.20952820e-004, 9.62669583e-005, -9.55932919e-005,
          9.76703814e-005, -5.84542468e-005, 1.00784171e-004,
          -5.88858820e-005, 1.30478351e-004, -5.14839485e-005,
          1.03372804e-004, -3.56816745e-005, 8.36799591e-005,
          -1.62522592e-005, 8.97666177e-005, -4.58006507e-005,
          3.47467649e-005, -4.43930294e-005, 5.79847838e-005,
          -4.47841194e-005, 5.40456604e-005, -2.27075943e-005,
          7.80863338e-005, -1.64684989e-005, 1.69212959e-004,
          -5.59273940e-005, 8.13925362e-005, 2.85147726e-005,
          2.64086957e-005, 5.63326321e-005, 4.31500812e-005,
          -7.19858726e-005, 1.19301032e-004, -5.56977102e-005,
          1.49785905e-004, -2.72131183e-005, 1.84471457e-004,
          -4.85836499e-005, 1.61710457e-004, 1.83247394e-005,
          1.04903127e-004, 1.40236443e-005, 2.83235655e-004,
          2.52278522e-004, 1.71024905e-004, 7.95348096e-005,
          5.91035496e-005, -2.45919564e-005, 8.07122560e-005,
          -1.93593023e-005, 1.16196170e-004, -5.29220706e-005,
          -4.52945678e-005, 3.70565540e-005, -2.28701087e-004,
          2.33828032e-004, -5.89282681e-005, 4.33048772e-005,
          9.80962068e-005, -2.58953933e-005, 8.40175708e-005,
          -1.64007761e-005, 6.97844589e-005, 8.94997447e-006,
          1.65677062e-004, 4.87110992e-005, 2.91259028e-004,
          1.93693093e-004, 6.10382340e-005, 3.39483777e-005,
          7.95322994e-005, 9.83682548e-006, 1.05634870e-004,
          2.17613451e-005, -2.30493984e-004, 1.68829996e-004,
          8.81094675e-005, -1.39859185e-004, 6.83570179e-005,
          -1.37628027e-004, 6.74613257e-005, -1.05280531e-004,
          6.37649719e-005, 3.49873881e-005, 8.18913759e-005,
          9.70505935e-005, 3.16770675e-005, 3.66902714e-005,
          1.27639451e-005, -1.53947567e-005, 7.44459612e-005,
          -1.17890795e-005, 1.43876372e-004, -2.45160027e-006,
          2.14034124e-004, 5.58339998e-005, 5.41927111e-005,
          -1.13989467e-004, 6.84615297e-005, -8.86299385e-005,
          6.98649528e-005, -5.14908970e-005, 7.29787425e-005,
          -5.19225323e-005, 1.02672915e-004, -4.45205987e-005,
          7.55673755e-005, -2.87183248e-005, 5.58745342e-005,
          -9.28890950e-006, 6.19611965e-005, -3.88373010e-005,
          6.94133951e-006, -3.74296797e-005, 3.01793589e-005,
          -3.78207696e-005, 2.62402355e-005, -1.57442446e-005,
          5.02809089e-005, -9.50514823e-006, 1.41407538e-004,
          -4.89640443e-005, 5.35871113e-005, 3.54781223e-005,
          -1.39673205e-006, 6.32959855e-005, 1.53446563e-005,
          -6.50225265e-005, 9.14956036e-005, -4.87343605e-005,
          1.21980476e-004, -2.02497686e-005, 1.56666036e-004,
          -4.16203002e-005, 1.33905021e-004, 2.52880891e-005,
          7.70976985e-005, 2.09869941e-005, 2.55430234e-004,
          2.59241875e-004, 1.43219469e-004, 8.64981557e-005,
          3.12981210e-005, -1.76286067e-005, 5.29068311e-005,
          -1.23959526e-005, 8.83907414e-005, -4.59587209e-005,
          -7.30999964e-005, 4.40199037e-005, -2.56506522e-004,
          2.40791371e-004, -8.67336930e-005, 5.02682269e-005,
          7.02907782e-005, -1.89320435e-005, 5.62121422e-005,
          -9.43742543e-006, 4.19790304e-005, 1.59133251e-005,
          1.37871626e-004, 5.56744526e-005, 2.63453607e-004,
          2.00656446e-004, 3.32328091e-005, 4.09117274e-005,
          5.17268709e-005, 1.68001752e-005, 7.78294416e-005,
          2.87246949e-005, -2.58299406e-004, 1.75793350e-004,
          6.03040426e-005, -1.32895831e-004, 4.05515893e-005,
          -1.30664688e-004, 3.96558971e-005, -9.83171776e-005,
          1.81264058e-005, 6.20632054e-005, -3.20879044e-005,
          1.70288320e-006, -5.10010286e-005, -5.03821429e-005,
          1.06809866e-005, -4.67764694e-005, 8.01114002e-005,
          -3.74389892e-005, 1.50269145e-004, 2.08466117e-005,
          -9.57226348e-006, -1.48976862e-004, 4.69655879e-006,
          -1.23617327e-004, 6.09998369e-006, -8.64782851e-005,
          9.21377250e-006, -8.69099240e-005, 3.89079469e-005,
          -7.95079904e-005, 1.18024036e-005, -6.37057165e-005,
          -7.89043861e-006, -4.42762976e-005, -1.80377924e-006,
          -7.38246890e-005, -5.68236319e-005, -7.24170677e-005,
          -3.35856130e-005, -7.28081577e-005, -3.75247364e-005,
          -5.07316327e-005, -1.34840629e-005, -4.44925390e-005,
          7.76425586e-005, -8.39514323e-005, -1.01778624e-005,
          4.90733839e-007, -6.51617011e-005, 2.83085938e-005,
          -4.84203156e-005, -1.00009915e-004, 2.77306335e-005,
          -8.37217522e-005, 5.82155044e-005, -5.52371566e-005,
          9.29010566e-005, -7.66076919e-005, 7.01400495e-005,
          -9.69929897e-006, 1.33327267e-005, -1.40003949e-005,
          1.91665255e-004, 2.24254487e-004, 7.94544976e-005,
          5.15107713e-005, -3.24668508e-005, -5.26159965e-005,
          -1.08581416e-005, -4.73833425e-005, 2.46257696e-005,
          -8.09461126e-005, -1.36864968e-004, 9.03251657e-006,
          -3.20271502e-004, 2.05803983e-004, -1.50498672e-004,
          1.52808389e-005, 6.52580593e-006, -5.39194334e-005,
          -7.55282917e-006, -4.44248144e-005, -2.17859415e-005,
          -1.90740648e-005, 7.41066542e-005, 2.06870627e-005,
          1.99688628e-004, 1.65669058e-004, -3.05321628e-005,
          5.92433753e-006, -1.20381010e-005, -1.81872147e-005,
          1.40644688e-005, -6.26269457e-006, -3.22064385e-004,
          1.40805962e-004, -3.46092929e-006, -1.67883220e-004,
          -2.32133843e-005, -1.65652076e-004, -2.41090765e-005,
          -1.33304566e-004, -5.02143084e-005, -6.03603185e-005,
          -6.91274327e-005, -1.12445348e-004, -7.44541967e-006,
          -1.08839675e-004, 6.19849961e-005, -9.95021910e-005,
          1.32142741e-004, -4.12165900e-005, -2.76986702e-005,
          -2.11040053e-004, -1.34298480e-005, -1.85680532e-004,
          -1.20264231e-005, -1.48541483e-004, -8.91263426e-006,
          -1.48973122e-004, 2.07815392e-005, -1.41571189e-004,
          -6.32400315e-006, -1.25768915e-004, -2.60168454e-005,
          -1.06339503e-004, -1.99301867e-005, -1.35887894e-004,
          -7.49500396e-005, -1.34480273e-004, -5.17120206e-005,
          -1.34871370e-004, -5.56511441e-005, -1.12794834e-004,
          -3.16104706e-005, -1.06555737e-004, 5.95161546e-005,
          -1.46014630e-004, -2.83042682e-005, -6.15724712e-005,
          -8.32881124e-005, -3.37546080e-005, -6.65467232e-005,
          -1.62073120e-004, 9.60422676e-006, -1.45784958e-004,
          4.00890967e-005, -1.17300362e-004, 7.47746526e-005,
          -1.38670890e-004, 5.20136455e-005, -7.17625007e-005,
          -4.79368009e-006, -7.60635958e-005, 1.73538836e-004,
          1.62191296e-004, 6.13280936e-005, -1.05524332e-005,
          -5.05932585e-005, -1.14679198e-004, -2.89845484e-005,
          -1.09446548e-004, 6.49936328e-006, -1.43009311e-004,
          -1.54991372e-004, -5.30306861e-005, -3.38397891e-004,
          1.43740777e-004, -1.68625076e-004, -4.67823666e-005,
          -1.16006004e-005, -1.15982635e-004, -2.56792355e-005,
          -1.06488020e-004, -3.99123492e-005, -8.11372665e-005,
          5.59802502e-005, -4.13761409e-005, 1.81562209e-004,
          1.03605853e-004, -4.86585704e-005, -5.61388661e-005,
          -3.01645068e-005, -8.02504146e-005, -4.06193749e-006,
          -6.83258986e-005, -3.40190803e-004, 7.87427634e-005,
          -2.15873351e-005, -2.29946425e-004, -4.13397902e-005,
          -2.27715282e-004, -4.22354824e-005, -1.95367771e-004,
          -1.89131242e-005, -5.20850263e-005, 4.27688901e-005,
          -4.84793527e-005, 1.12199305e-004, -3.91418725e-005,
          1.82357049e-004, 1.91437284e-005, 2.25156400e-005,
          -1.50679742e-004, 3.67844623e-005, -1.25320206e-004,
          3.81878854e-005, -8.81811648e-005, 4.13016751e-005,
          -8.86128037e-005, 7.09958476e-005, -8.12108701e-005,
          4.38903080e-005, -6.54085961e-005, 2.41974649e-005,
          -4.59791809e-005, 3.02841236e-005, -7.55275760e-005,
          -2.47357293e-005, -7.41199547e-005, -1.49771085e-006,
          -7.45110447e-005, -5.43683427e-006, -5.24345160e-005,
          1.86038415e-005, -4.61954223e-005, 1.09730463e-004,
          -8.56543193e-005, 2.19100421e-005, -1.21214941e-006,
          -3.30738003e-005, 2.66057104e-005, -1.63324130e-005,
          -1.01712794e-004, 5.98185361e-005, -8.54246318e-005,
          9.03034088e-005, -5.69400399e-005, 1.24988961e-004,
          -7.83105716e-005, 1.02227954e-004, -1.14021823e-005,
          4.54206311e-005, -1.57032773e-005, 2.23753159e-004,
          2.22551607e-004, 1.11542402e-004, 4.98078880e-005,
          -3.78946908e-007, -5.43188798e-005, 2.12297618e-005,
          -4.90862258e-005, 5.67136740e-005, -8.26489922e-005,
          -1.04777064e-004, 7.32963281e-006, -2.88183597e-004,
          2.04101103e-004, -1.18410768e-004, 1.35779546e-005,
          3.86137108e-005, -5.56223167e-005, 2.45350748e-005,
          -4.61276977e-005, 1.03019611e-005, -2.07769481e-005,
          1.06194559e-004, 1.89841794e-005, 2.31776532e-004,
          1.63966164e-004, 1.55574116e-006, 4.22145422e-006,
          2.00498016e-005, -1.98900980e-005, 4.61523741e-005,
          -7.96557833e-006, -2.89976480e-004, 1.39103082e-004,
          2.86269751e-005, -1.69586114e-004, 8.87451915e-006,
          -1.67354956e-004, 7.97882694e-006, -1.35007445e-004,
          6.16820180e-005, 3.60567651e-006, 1.31112436e-004,
          1.29431555e-005, 2.01270173e-004, 7.12287583e-005,
          4.14287642e-005, -9.85947117e-005, 5.56975865e-005,
          -7.32351837e-005, 5.71010096e-005, -3.60961385e-005,
          6.02147993e-005, -3.65277774e-005, 8.99089719e-005,
          -2.91258420e-005, 6.28034322e-005, -1.33235699e-005,
          4.31105909e-005, 6.10584675e-006, 4.91972496e-005,
          -2.34425443e-005, -5.82260554e-006, -2.20349248e-005,
          1.74154138e-005, -2.24260148e-005, 1.34762904e-005,
          -3.49489085e-007, 3.75169657e-005, 5.88960711e-006,
          1.28643587e-004, -3.35692894e-005, 4.08231645e-005,
          5.08728772e-005, -1.41606770e-005, 7.86907403e-005,
          2.58071123e-006, -4.96277680e-005, 7.87316603e-005,
          -3.33396056e-005, 1.09216533e-004, -4.85501187e-006,
          1.43902085e-004, -2.62255453e-005, 1.21141078e-004,
          4.06828440e-005, 6.43337553e-005, 3.63817489e-005,
          2.42666283e-004, 2.74636637e-004, 1.30455519e-004,
          1.01892918e-004, 1.85341778e-005, -2.23385018e-006,
          4.01428842e-005, 2.99880367e-006, 7.56267982e-005,
          -3.05639660e-005, -8.58639396e-005, 5.94146622e-005,
          -2.69270473e-004, 2.56186118e-004, -9.94976435e-005,
          6.56629854e-005, 5.75268350e-005, -3.53728728e-006,
          4.34481990e-005, 5.95733036e-006, 2.92150853e-005,
          3.13080818e-005, 1.25107690e-004, 7.10692038e-005,
          2.50689656e-004, 2.16051194e-004, 2.04688658e-005,
          5.63064823e-005, 3.89629276e-005, 3.21949301e-005,
          6.50654983e-005, 4.41194497e-005, -2.71063356e-004,
          1.91188112e-004, 4.75400993e-005, -1.17501084e-004,
          2.77876425e-005, -1.15269926e-004, 2.68919521e-005,
          -8.29224227e-005, 6.94304181e-005, 9.33747924e-006,
          1.39588170e-004, 6.76230775e-005, -2.02532501e-005,
          -1.02200385e-004, -5.98442830e-006, -7.68408645e-005,
          -4.58100340e-006, -3.97018157e-005, -1.46721447e-006,
          -4.01334510e-005, 2.82269593e-005, -3.27315174e-005,
          1.12141652e-006, -1.69292471e-005, -1.85714252e-005,
          2.50017001e-006, -1.24847666e-005, -2.70482215e-005,
          -6.75046176e-005, -2.56406001e-005, -4.42666023e-005,
          -2.60316920e-005, -4.82057258e-005, -3.95516554e-006,
          -2.41650505e-005, 2.28393060e-006, 6.69615692e-005,
          -3.71749666e-005, -2.08588481e-005, 4.72672036e-005,
          -7.58426904e-005, 7.50850595e-005, -5.91013049e-005,
          -5.32334452e-005, 1.70496460e-005, -3.69452828e-005,
          4.75345150e-005, -8.46068815e-006, 8.22200673e-005,
          -2.98312225e-005, 5.94590638e-005, 3.70771704e-005,
          2.65173981e-006, 3.27760717e-005, 1.80984265e-004,
          2.71030964e-004, 6.87735082e-005, 9.82872371e-005,
          -4.31478365e-005, -5.83952669e-006, -2.15391283e-005,
          -6.06872959e-007, 1.39447829e-005, -3.41696432e-005,
          -1.47545958e-004, 5.58089851e-005, -3.30952462e-004,
          2.52580445e-004, -1.61179662e-004, 6.20573046e-005,
          -4.15518116e-006, -7.14296402e-006, -1.82338154e-005,
          2.35165385e-006, -3.24669272e-005, 2.77024028e-005,
          6.34256648e-005, 6.74635303e-005, 1.89007638e-004,
          2.12445520e-004, -4.12131485e-005, 5.27008051e-005,
          -2.27190885e-005, 2.85892547e-005, 3.38348195e-006,
          4.05137725e-005, -3.32745374e-004, 1.87582438e-004,
          -1.41419159e-005, -1.21106757e-004, -3.38943719e-005,
          -1.18875607e-004, -3.47900641e-005, -8.65280963e-005,
          7.01577519e-005, 5.82856010e-005, -8.96836646e-005,
          -1.11537869e-004, -7.54148423e-005, -8.61783410e-005,
          -7.40114192e-005, -4.90392958e-005, -7.08976295e-005,
          -4.94709311e-005, -4.12034569e-005, -4.20689976e-005,
          -6.83089966e-005, -2.62667254e-005, -8.80018415e-005,
          -6.83730877e-006, -8.19151828e-005, -3.63856998e-005,
          -1.36935036e-004, -3.49780785e-005, -1.13697017e-004,
          -3.53691721e-005, -1.17636140e-004, -1.32926443e-005,
          -9.35954668e-005, -7.05354842e-006, -2.46884224e-006,
          -4.65124431e-005, -9.02892643e-005, 3.79297235e-005,
          -1.45273109e-004, 6.57475830e-005, -1.28531712e-004,
          -6.25709217e-005, -5.23807685e-005, -4.62827593e-005,
          -2.18958994e-005, -1.77981674e-005, 1.27896546e-005,
          -3.91687026e-005, -9.97134975e-006, 2.77396903e-005,
          -6.67786735e-005, 2.34385952e-005, 1.11553847e-004,
          2.61693494e-004, -6.56903467e-007, 8.89497605e-005,
          -1.12578251e-004, -1.51770055e-005, -9.09695445e-005,
          -9.94435231e-006, -5.54856306e-005, -4.35071197e-005,
          -2.16976376e-004, 4.64715049e-005, -4.00382880e-004,
          2.43242976e-004, -2.30610065e-004, 5.27198281e-005,
          -7.35855938e-005, -1.64804424e-005, -8.76642298e-005,
          -6.98582517e-006, -1.01897342e-004, 1.83649245e-005,
          -6.00474641e-006, 5.81260501e-005, 1.19577220e-004,
          2.03108037e-004, -1.10643567e-004, 4.33633286e-005,
          -9.21495011e-005, 1.92517746e-005, -6.60469304e-005,
          3.11762960e-005, -4.02175792e-004, 1.78244954e-004,
          -8.35723331e-005, -1.30444241e-004, -1.03324790e-004,
          -1.28213083e-004, -1.04220475e-004, -9.58655801e-005,
          -1.59841409e-004, -1.69823470e-004, -1.45572587e-004,
          -1.44463935e-004, -1.44169171e-004, -1.07324893e-004,
          -1.41055381e-004, -1.07756532e-004, -1.11361202e-004,
          -1.00354599e-004, -1.38466741e-004, -8.45523246e-005,
          -1.58159586e-004, -6.51229129e-005, -1.52072927e-004,
          -9.46713044e-005, -2.07092788e-004, -9.32636831e-005,
          -1.83854761e-004, -9.36547731e-005, -1.87793892e-004,
          -7.15782444e-005, -1.63753211e-004, -6.53391471e-005,
          -7.26265935e-005, -1.04798048e-004, -1.60447016e-004,
          -2.03558775e-005, -2.15430860e-004, 7.46198248e-006,
          -1.98689464e-004, -1.20856523e-004, -1.22538520e-004,
          -1.04568360e-004, -9.20536477e-005, -7.60837647e-005,
          -5.73680918e-005, -9.74543000e-005, -8.01290953e-005,
          -3.05459107e-005, -1.36936418e-004, -3.48470057e-005,
          4.13960988e-005, 2.03407879e-004, -7.08146545e-005,
          3.06641596e-005, -1.82735996e-004, -7.34626083e-005,
          -1.61127289e-004, -6.82299506e-005, -1.25643375e-004,
          -1.01792721e-004, -2.87134113e-004, -1.18140952e-005,
          -4.70540632e-004, 1.84957375e-004, -3.00767832e-004,
          -5.56577379e-006, -1.43743338e-004, -7.47660451e-005,
          -1.57821982e-004, -6.52714225e-005, -1.72055094e-004,
          -3.99206765e-005, -7.61624979e-005, -1.59549714e-007,
          4.94194719e-005, 1.44822436e-004, -1.80801318e-004,
          -1.49222742e-005, -1.62307246e-004, -3.90338246e-005,
          -1.36204675e-004, -2.71093068e-005, -4.72333544e-004,
          1.19959353e-004, -1.53730085e-004, -1.88729842e-004,
          -1.73482535e-004, -1.86498684e-004, -1.74378234e-004,
          -1.54151174e-004, 1.42688223e-005, 2.53595263e-005,
          1.56722472e-005, 6.24985696e-005, 1.87860351e-005,
          6.20669380e-005, 4.84802076e-005, 6.94688715e-005,
          2.13746662e-005, 8.52711382e-005, 1.68182464e-006,
          1.04700557e-004, 7.76848356e-006, 7.51521657e-005,
          -4.72513711e-005, 7.65597870e-005, -2.40133504e-005,
          7.61686970e-005, -2.79524738e-005, 9.82452184e-005,
          -3.91179947e-006, 1.04484316e-004, 8.72148230e-005,
          6.50254224e-005, -6.05598757e-007, 1.49467596e-004,
          -5.55894403e-005, 1.77285445e-004, -3.88480548e-005,
          4.89669437e-005, 3.73028961e-005, 6.52551025e-005,
          6.77877688e-005, 9.37396981e-005, 1.02473321e-004,
          7.23691628e-005, 7.97123139e-005, 1.39277559e-004,
          2.29049892e-005, 1.34976464e-004, 2.01237519e-004,
          3.73231334e-004, 8.90267620e-005, 2.00487630e-004,
          -2.28945883e-005, 9.63608618e-005, -1.28587885e-006,
          1.01593512e-004, 3.41980340e-005, 6.80307494e-005,
          -1.27292704e-004, 1.58009367e-004, -3.10699223e-004,
          3.54780845e-004, -1.40926408e-004, 1.64257697e-004,
          1.60980690e-005, 9.50574249e-005, 2.01943408e-006,
          1.04552040e-004, -1.22136789e-005, 1.29902794e-004,
          8.36789186e-005, 1.69663923e-004, 2.09260892e-004,
          3.14645906e-004, -2.09598984e-005, 1.54901194e-004,
          -2.46583795e-006, 1.30789645e-004, 2.36367323e-005,
          1.42714154e-004, -3.12492135e-004, 2.89782824e-004,
          6.11133373e-006, -1.89063703e-005, -1.36411218e-005,
          -1.66752161e-005, -1.45368131e-005, 1.56722872e-005,
          1.40342479e-006, 3.71390452e-005, 4.51721371e-006,
          3.67074099e-005, 3.42113854e-005, 4.41093434e-005,
          7.10584482e-006, 5.99116138e-005, -1.25869974e-005,
          7.93410290e-005, -6.50033780e-006, 4.97926412e-005,
          -6.15201934e-005, 5.12002589e-005, -3.82821745e-005,
          5.08091689e-005, -4.22212979e-005, 7.28856976e-005,
          -1.81806208e-005, 7.91247949e-005, 7.29460007e-005,
          3.96658943e-005, -1.48744202e-005, 1.24108061e-004,
          -6.98582662e-005, 1.51925924e-004, -5.31168771e-005,
          2.36074156e-005, 2.30340738e-005, 3.98955781e-005,
          5.35189429e-005, 6.83801700e-005, 8.82044988e-005,
          4.70096384e-005, 6.54434916e-005, 1.13918031e-004,
          8.63616788e-006, 1.09616936e-004, 1.86968697e-004,
          3.47871828e-004, 7.47579397e-005, 1.75128094e-004,
          -3.71634087e-005, 7.10013337e-005, -1.55547004e-005,
          7.62339914e-005, 1.99292117e-005, 4.26712177e-005,
          -1.41561526e-004, 1.32649846e-004, -3.24968045e-004,
          3.29421309e-004, -1.55195230e-004, 1.38898162e-004,
          1.82924714e-006, 6.96978968e-005, -1.22493875e-005,
          7.91925122e-005, -2.64825012e-005, 1.04543265e-004,
          6.94100963e-005, 1.44304388e-004, 1.94992070e-004,
          2.89286370e-004, -3.52287207e-005, 1.29541673e-004,
          -1.67346607e-005, 1.05430117e-004, 9.36791002e-006,
          1.17354633e-004, -3.26760957e-004, 2.64423288e-004,
          -8.15748808e-006, -4.42658966e-005, -2.79099440e-005,
          -4.20347424e-005, -2.88056344e-005, -9.68723816e-006,
          3.11378903e-006, -4.31636124e-007, 3.28079623e-005,
          6.97029736e-006, 5.70241991e-006, 2.27725704e-005,
          -1.39904223e-005, 4.22019875e-005, -7.90376271e-006,
          1.26535951e-005, -6.29236165e-005, 1.40612156e-005,
          -3.96855976e-005, 1.36701246e-005, -4.36247210e-005,
          3.57466524e-005, -1.95840457e-005, 4.19857461e-005,
          7.15425776e-005, 2.52685072e-006, -1.62778451e-005,
          8.69690193e-005, -7.12616893e-005, 1.14786875e-004,
          -5.45203002e-005, -1.35316286e-005, 2.16306489e-005,
          2.75653474e-006, 5.21155198e-005, 3.12411285e-005,
          8.68010757e-005, 9.87059411e-006, 6.40400685e-005,
          7.67789825e-005, 7.23274297e-006, 7.24778874e-005,
          1.85565266e-004, 3.10732779e-004, 7.33545166e-005,
          1.37989060e-004, -3.85668354e-005, 3.38622885e-005,
          -1.69581253e-005, 3.90949426e-005, 1.85257868e-005,
          5.53217478e-006, -1.42964956e-004, 9.55108044e-005,
          -3.26371461e-004, 2.92282260e-004, -1.56598646e-004,
          1.01759120e-004, 4.25822378e-007, 3.25588517e-005,
          -1.36528124e-005, 4.20534707e-005, -2.78859261e-005,
          6.74042167e-005, 6.80066732e-005, 1.07165346e-004,
          1.93588639e-004, 2.52147351e-004, -3.66321474e-005,
          9.24026244e-005, -1.81380838e-005, 6.82910686e-005,
          7.96448512e-006, 8.02155919e-005, -3.28164373e-004,
          2.27284254e-004, -9.56091299e-006, -8.14049417e-005,
          -2.93133689e-005, -7.91737839e-005, -3.02090593e-005,
          -4.68262842e-005, 2.96941726e-005, 7.40193354e-006,
          2.58863111e-006, 2.32042057e-005, -1.71042102e-005,
          4.26336228e-005, -1.10175515e-005, 1.30852313e-005,
          -6.60374062e-005, 1.44928517e-005, -4.27993873e-005,
          1.41017608e-005, -4.67385107e-005, 3.61782877e-005,
          -2.26978354e-005, 4.24173813e-005, 6.84287879e-005,
          2.95848690e-006, -1.93916349e-005, 8.74006510e-005,
          -7.43754790e-005, 1.15218514e-004, -5.76340899e-005,
          -1.30999924e-005, 1.85168610e-005, 3.18817092e-006,
          4.90017301e-005, 3.16727637e-005, 8.36872860e-005,
          1.03022303e-005, 6.09262788e-005, 7.72106214e-005,
          4.11895417e-006, 7.29095264e-005, 1.82451477e-004,
          3.11164418e-004, 7.02407269e-005, 1.38420684e-004,
          -4.16806215e-005, 3.42939275e-005, -2.00719151e-005,
          3.95265779e-005, 1.54119971e-005, 5.96381096e-006,
          -1.46078746e-004, 9.59424360e-005, -3.29485250e-004,
          2.92713899e-004, -1.59712436e-004, 1.02190759e-004,
          -2.68796657e-006, 3.29904869e-005, -1.67666021e-005,
          4.24851060e-005, -3.09997158e-005, 6.78358556e-005,
          6.48928835e-005, 1.07596985e-004, 1.90474850e-004,
          2.52578960e-004, -3.97459335e-005, 9.28342561e-005,
          -2.12518735e-005, 6.87227075e-005, 4.85069631e-006,
          8.06472235e-005, -3.31278163e-004, 2.27715878e-004,
          -1.26747018e-005, -8.09733028e-005, -3.24271568e-005,
          -7.87421523e-005, -3.33228490e-005, -4.63946453e-005,
          -2.71055414e-005, 1.58022722e-005, -4.67983846e-005,
          3.52316893e-005, -4.07117259e-005, 5.68329779e-006,
          -9.57315788e-005, 7.09091819e-006, -7.24935599e-005,
          6.69982728e-006, -7.64326833e-005, 2.87763542e-005,
          -5.23920098e-005, 3.50154514e-005, 3.87346154e-005,
          -4.44344687e-006, -4.90858074e-005, 7.99987174e-005,
          -1.04069652e-004, 1.07816581e-004, -8.73282625e-005,
          -2.05019260e-005, -1.11773124e-005, -4.21376262e-006,
          1.93075575e-005, 2.42708302e-005, 5.39931098e-005,
          2.90029652e-006, 3.12321063e-005, 6.98086878e-005,
          -2.55752184e-005, 6.55075928e-005, 1.52757304e-004,
          3.03762470e-004, 4.05465544e-005, 1.31018751e-004,
          -7.13747941e-005, 2.68919921e-005, -4.97660876e-005,
          3.21246443e-005, -1.42821764e-005, -1.43812247e-006,
          -1.75772919e-004, 8.85405025e-005, -3.59179423e-004,
          2.85311980e-004, -1.89406608e-004, 9.47888257e-005,
          -3.23821405e-005, 2.55885552e-005, -4.64607765e-005,
          3.50831724e-005, -6.06938884e-005, 6.04339220e-005,
          3.51987110e-005, 1.00195051e-004, 1.60780677e-004,
          2.45177042e-004, -6.94401097e-005, 8.54323225e-005,
          -5.09460478e-005, 6.13207740e-005, -2.48434771e-005,
          7.32452900e-005, -3.60972335e-004, 2.20313945e-004,
          -4.23688762e-005, -8.83752364e-005, -6.21213330e-005,
          -8.61440858e-005, -6.30170252e-005, -5.37965789e-005,
          -1.96928413e-005, 1.94294153e-005, -1.36061826e-005,
          -1.01189753e-005, -6.86260391e-005, -8.71135398e-006,
          -4.53880166e-005, -9.10244580e-006, -4.93271400e-005,
          1.29740802e-005, -2.52864666e-005, 1.92131774e-005,
          6.58401550e-005, -2.02457195e-005, -2.19802660e-005,
          6.41964507e-005, -7.69641047e-005, 9.20143066e-005,
          -6.02227192e-005, -3.63041981e-005, 1.59282299e-005,
          -2.00160357e-005, 4.64131008e-005, 8.46855801e-006,
          8.10986530e-005, -1.29019763e-005, 5.83376495e-005,
          5.40064138e-005, 1.53032317e-006, 4.97053188e-005,
          1.79862851e-004, 2.87960196e-004, 6.76520940e-005,
          1.15216484e-004, -4.42692544e-005, 1.10897190e-005,
          -2.26605462e-005, 1.63223740e-005, 1.28233660e-005,
          -1.72403961e-005, -1.48667372e-004, 7.27382285e-005,
          -3.32073891e-004, 2.69509706e-004, -1.62301076e-004,
          7.89865517e-005, -5.27659768e-006, 9.78628213e-006,
          -1.93552332e-005, 1.92809002e-005, -3.35883451e-005,
          4.46316481e-005, 6.23042506e-005, 8.43927774e-005,
          1.87886224e-004, 2.29374768e-004, -4.23345664e-005,
          6.96300485e-005, -2.38405046e-005, 4.55185000e-005,
          2.26206544e-006, 5.74430196e-005, -3.33866774e-004,
          2.04511671e-004, -1.52633329e-005, -1.04177510e-004,
          -3.50157898e-005, -1.01946360e-004, -3.59114783e-005,
          -6.95988565e-005, 6.08665914e-006, -2.95483915e-005,
          -4.89331942e-005, -2.81407702e-005, -2.56951753e-005,
          -2.85318620e-005, -2.96342987e-005, -6.45533555e-006,
          -5.59362434e-006, -2.16239343e-007, 8.55329999e-005,
          -3.96751348e-005, -2.28742351e-006, 4.47670318e-005,
          -5.72712670e-005, 7.25848950e-005, -4.05298779e-005,
          -5.57336134e-005, 3.56210730e-005, -3.94454510e-005,
          6.61059385e-005, -1.09608582e-005, 1.00791498e-004,
          -3.23313907e-005, 7.80304908e-005, 3.45769986e-005,
          2.12231644e-005, 3.02759036e-005, 1.99555681e-004,
          2.68530799e-004, 8.73449389e-005, 9.57870652e-005,
          -2.45764113e-005, -8.33969716e-006, -2.96770349e-006,
          -3.10704286e-006, 3.25162073e-005, -3.66698114e-005,
          -1.28974527e-004, 5.33088132e-005, -3.12381046e-004,
          2.50080280e-004, -1.42608231e-004, 5.95571364e-005,
          1.44162441e-005, -9.64313404e-006, 3.37609464e-007,
          -1.48516165e-007, -1.38955038e-005, 2.52022328e-005,
          8.19970955e-005, 6.49633585e-005, 2.07579054e-004,
          2.09945356e-004, -2.26417233e-005, 5.02006369e-005,
          -4.14766282e-006, 2.60890847e-005, 2.19549074e-005,
          3.80136044e-005, -3.14173958e-004, 1.85082259e-004,
          4.42950932e-006, -1.23606922e-004, -1.53229466e-005,
          -1.21375771e-004, -1.62186388e-005, -8.90282681e-005,
          -5.50198529e-005, 1.40762063e-006, -3.17818340e-005,
          1.01652927e-006, -3.57209574e-005, 2.30930564e-005,
          -1.16802830e-005, 2.93321518e-005, 7.94463413e-005,
          -1.01267442e-005, -8.37408243e-006, 7.43154233e-005,
          -6.33579257e-005, 1.02133286e-004, -4.66165366e-005,
          -2.61852238e-005, 2.95344125e-005, -9.89706041e-006,
          6.00192834e-005, 1.85875324e-005, 9.47048393e-005,
          -2.78300126e-006, 7.19438322e-005, 6.41253864e-005,
          1.51365057e-005, 5.98242950e-005, 1.93469023e-004,
          2.98079191e-004, 8.12582803e-005, 1.25335457e-004,
          -3.06630718e-005, 2.12086943e-005, -9.05436264e-006,
          2.64413484e-005, 2.64295486e-005, -7.12142037e-006,
          -1.35061186e-004, 8.28572083e-005, -3.18467704e-004,
          2.79628672e-004, -1.48694890e-004, 8.91055242e-005,
          8.32958540e-006, 1.99052574e-005, -5.74904971e-006,
          2.93998746e-005, -1.99821625e-005, 5.47506243e-005,
          7.59104369e-005, 9.45117499e-005, 2.01492396e-004,
          2.39493747e-004, -2.87283838e-005, 7.97490284e-005,
          -1.02343220e-005, 5.56374762e-005, 1.58682487e-005,
          6.75619958e-005, -3.20260617e-004, 2.14630651e-004,
          -1.65715005e-006, -9.40585378e-005, -2.14096053e-005,
          -9.18273799e-005, -2.23052975e-005, -5.94798767e-005,
          2.32380189e-005, -3.91091334e-007, 1.92988955e-005,
          2.16854351e-005, 4.33395689e-005, 2.79245305e-005,
          1.34466187e-004, -1.15343655e-005, 4.66457714e-005,
          7.29078020e-005, -8.33807098e-006, 1.00725665e-004,
          8.40331631e-006, -2.75928451e-005, 8.45542672e-005,
          -1.13046808e-005, 1.15039140e-004, 1.71799129e-005,
          1.49724685e-004, -4.19062189e-006, 1.26963685e-004,
          6.27177724e-005, 7.01563622e-005, 5.84166737e-005,
          2.48488883e-004, 2.96671555e-004, 1.36278133e-004,
          1.23927835e-004, 2.43567829e-005, 1.98010730e-005,
          4.59654912e-005, 2.50337271e-005, 8.14494051e-005,
          -8.52904122e-006, -8.00413327e-005, 8.14495870e-005,
          -2.63447844e-004, 2.78221065e-004, -9.36750366e-005,
          8.76979102e-005, 6.33494419e-005, 1.84976361e-005,
          4.92708059e-005, 2.79922551e-005, 3.50376904e-005,
          5.33430029e-005, 1.30930290e-004, 9.31041286e-005,
          2.56512256e-004, 2.38086126e-004, 2.62914709e-005,
          7.83414071e-005, 4.47855309e-005, 5.42298549e-005,
          7.08881053e-005, 6.61543745e-005, -2.65240757e-004,
          2.13223029e-004, 5.33627026e-005, -9.54661591e-005,
          3.36102494e-005, -9.32350013e-005, 3.27145572e-005,
          -6.08874980e-005, -3.93912342e-006, 2.20765269e-005,
          2.01015519e-005, 2.83156223e-005, 1.11228175e-004,
          -1.11432737e-005, 2.34077525e-005, 7.32988919e-005,
          -3.15760917e-005, 1.01116755e-004, -1.48347026e-005,
          -2.72017533e-005, 6.13162483e-005, -1.09135899e-005,
          9.18011210e-005, 1.75710029e-005, 1.26486673e-004,
          -3.79953053e-006, 1.03725666e-004, 6.31088624e-005,
          4.69183396e-005, 5.88077637e-005, 2.25250857e-004,
          2.97062652e-004, 1.13040114e-004, 1.24318933e-004,
          1.11876398e-006, 2.01921648e-005, 2.27274722e-005,
          2.54248189e-005, 5.82113826e-005, -8.13794941e-006,
          -1.03279352e-004, 8.18406770e-005, -2.86685885e-004,
          2.78612133e-004, -1.16913056e-004, 8.80890002e-005,
          4.01114194e-005, 1.88887279e-005, 2.60327852e-005,
          2.83833451e-005, 1.17996724e-005, 5.37340966e-005,
          1.07692271e-004, 9.34952186e-005, 2.33274230e-004,
          2.38477209e-004, 3.05345202e-006, 7.87324971e-005,
          2.15475138e-005, 5.46209449e-005, 4.76500827e-005,
          6.65454645e-005, -2.88478768e-004, 2.13614127e-004,
          3.01246855e-005, -9.50750691e-005, 1.03722296e-005,
          -9.28439113e-005, 9.47653825e-006, -6.04964080e-005,
          2.40406753e-005, 6.23909636e-006, 1.15167299e-004,
          -3.32197997e-005, 2.73468759e-005, 5.12223669e-005,
          -2.76369665e-005, 7.90402264e-005, -1.08955792e-005,
          -4.92782783e-005, 6.52553717e-005, -3.29901159e-005,
          9.57402444e-005, -4.50552307e-006, 1.30425789e-004,
          -2.58760574e-005, 1.07664790e-004, 4.10323337e-005,
          5.08574631e-005, 3.67312387e-005, 2.29189987e-004,
          2.74986116e-004, 1.16979238e-004, 1.02242404e-004,
          5.05788739e-006, -1.88436104e-006, 2.66665957e-005,
          3.34829269e-006, 6.21505096e-005, -3.02144763e-005,
          -9.93402282e-005, 5.97641483e-005, -2.82746740e-004,
          2.56535626e-004, -1.12973932e-004, 6.60124715e-005,
          4.40505428e-005, -3.18779826e-006, 2.99719086e-005,
          6.30681961e-006, 1.57387949e-005, 3.16575679e-005,
          1.11631394e-004, 7.14186972e-005, 2.37213360e-004,
          2.16400687e-004, 6.99257544e-006, 5.66559720e-005,
          2.54866372e-005, 3.25444198e-005, 5.15892061e-005,
          4.44689394e-005, -2.84539652e-004, 1.91537591e-004,
          3.40638071e-005, -1.17151591e-004, 1.43113530e-005,
          -1.14920440e-004, 1.34156608e-005, -8.25729367e-005,
          9.11266252e-005, -3.94588969e-005, 3.30620082e-006,
          4.49832696e-005, -5.16776417e-005, 7.28011291e-005,
          -3.49362526e-005, -5.55173756e-005, 4.12146946e-005,
          -3.92292131e-005, 7.16995637e-005, -1.07446194e-005,
          1.06385116e-004, -3.21151529e-005, 8.36241161e-005,
          3.47932364e-005, 2.68167896e-005, 3.04921432e-005,
          2.05149307e-004, 2.68747041e-004, 9.29385642e-005,
          9.60033067e-005, -1.89827879e-005, -8.12345752e-006,
          2.62592062e-006, -2.89080367e-006, 3.81098325e-005,
          -3.64535736e-005, -1.23380902e-004, 5.35250547e-005,
          -3.06787435e-004, 2.50296522e-004, -1.37014606e-004,
          5.97733742e-005, 2.00098693e-005, -9.42689439e-006,
          5.93123377e-006, 6.77231853e-008, -8.30187946e-006,
          2.54184724e-005, 8.75907208e-005, 6.51795999e-005,
          2.13172680e-004, 2.10161597e-004, -1.70480998e-005,
          5.04168747e-005, 1.44596163e-006, 2.63053244e-005,
          2.75485309e-005, 3.82298422e-005, -3.08580318e-004,
          1.85298501e-004, 1.00231337e-005, -1.23390695e-004,
          -9.72932230e-006, -1.21159537e-004, -1.06250136e-005,
          -8.88120267e-005, -8.78204228e-005, 8.44421666e-005,
          -1.42804260e-004, 1.12260030e-004, -1.26062878e-004,
          -1.60584786e-005, -4.99119269e-005, 2.29684133e-007,
          -1.94270560e-005, 2.87142775e-005, 1.52584971e-005,
          7.34374316e-006, -7.50250774e-006, 7.42521370e-005,
          -6.43098319e-005, 6.99510420e-005, 1.14022689e-004,
          3.08205927e-004, 1.81193877e-006, 1.35462207e-004,
          -1.10109409e-004, 3.13354394e-005, -8.85007030e-005,
          3.65680935e-005, -5.30167890e-005, 3.00532429e-006,
          -2.14507527e-004, 9.29839516e-005, -3.97914060e-004,
          2.89755408e-004, -2.28141231e-004, 9.92322748e-005,
          -7.11167522e-005, 3.00320025e-005, -8.51953882e-005,
          3.95266179e-005, -9.94285001e-005, 6.48773712e-005,
          -3.53590417e-006, 1.04638493e-004, 1.22046062e-004,
          2.49620498e-004, -1.08174725e-004, 8.98757717e-005,
          -8.96806596e-005, 6.57642231e-005, -6.35780889e-005,
          7.76887391e-005, -3.99706943e-004, 2.24757401e-004,
          -8.11034915e-005, -8.39317945e-005, -1.00855941e-004,
          -8.17006367e-005, -1.01751633e-004, -4.93531334e-005,
          -5.49838442e-005, 2.78178595e-005, -3.82424550e-005,
          -1.00500649e-004, 3.79084959e-005, -8.42124864e-005,
          6.83933686e-005, -5.57278909e-005, 1.03078921e-004,
          -7.70984261e-005, 8.03179137e-005, -1.01900332e-005,
          2.35105890e-005, -1.44911282e-005, 2.01843111e-004,
          2.23763753e-004, 8.96323618e-005, 5.10200371e-005,
          -2.22889885e-005, -5.31067271e-005, -6.80280095e-007,
          -4.78740767e-005, 3.48036301e-005, -8.14368468e-005,
          -1.26687111e-004, 8.54178234e-006, -3.10093630e-004,
          2.05313248e-004, -1.40320801e-004, 1.47901046e-005,
          1.67036669e-005, -5.44101676e-005, 2.62503295e-006,
          -4.49155486e-005, -1.16080801e-005, -1.95647990e-005,
          8.42845184e-005, 2.01963285e-005, 2.09866485e-004,
          1.65178324e-004, -2.03543004e-005, 5.43360375e-006,
          -1.86023919e-006, -1.86779471e-005, 2.42423303e-005,
          -6.75342881e-006, -3.11886513e-004, 1.40315227e-004,
          6.71693260e-006, -1.68373954e-004, -1.30355229e-005,
          -1.66142810e-004, -1.39312151e-005, -1.33795300e-004,
          1.67413873e-005, -1.28318512e-004, 9.28923400e-005,
          -1.12030342e-004, 1.23377205e-004, -8.35457540e-005,
          1.58062758e-004, -1.04916282e-004, 1.35301758e-004,
          -3.80078927e-005, 7.84944277e-005, -4.23089878e-005,
          2.56826956e-004, 1.95945904e-004, 1.44616206e-004,
          2.32021757e-005, 3.26948539e-005, -8.09245903e-005,
          5.43035640e-005, -7.56919326e-005, 8.97874706e-005,
          -1.09254703e-004, -7.17032672e-005, -1.92760781e-005,
          -2.55109771e-004, 1.77495400e-004, -8.53369638e-005,
          -1.30277558e-005, 7.16875074e-005, -8.22280272e-005,
          5.76088751e-005, -7.27334118e-005, 4.33757632e-005,
          -4.73826585e-005, 1.39268363e-004, -7.62153195e-006,
          2.64850329e-004, 1.37360461e-004, 3.46295419e-005,
          -2.23842562e-005, 5.31236037e-005, -4.64958066e-005,
          7.92261708e-005, -3.45712870e-005, -2.56902684e-004,
          1.12497371e-004, 6.17007754e-005, -1.96191817e-004,
          4.19483185e-005, -1.93960659e-004, 4.10526263e-005,
          -1.61613163e-004, 7.61509509e-005, 1.62881643e-005,
          1.06635816e-004, 4.47727580e-005, 1.41321376e-004,
          2.34022227e-005, 1.18560369e-004, 9.03106120e-005,
          6.17530459e-005, 8.60095170e-005, 2.40085559e-004,
          3.24264402e-004, 1.27874810e-004, 1.51520682e-004,
          1.59534666e-005, 4.73939181e-005, 3.75621748e-005,
          5.26265721e-005, 7.30460888e-005, 1.90638038e-005,
          -8.84446490e-005, 1.09042427e-004, -2.71851168e-004,
          3.05813912e-004, -1.02078353e-004, 1.15290750e-004,
          5.49461220e-005, 4.60904812e-005, 4.08674860e-005,
          5.55851002e-005, 2.66343741e-005, 8.09358462e-005,
          1.22526966e-004, 1.20696976e-004, 2.48108932e-004,
          2.65678973e-004, 1.78881546e-005, 1.05934254e-004,
          3.63822146e-005, 8.18226981e-005, 6.24847889e-005,
          9.37472214e-005, -2.73644080e-004, 2.40815876e-004,
          4.49593863e-005, -6.78733122e-005, 2.52069312e-005,
          -6.56421616e-005, 2.43112408e-005, -3.32946547e-005,
          3.04848691e-005, 2.84845937e-005, 6.51704249e-005,
          7.11405892e-006, 4.24094178e-005, 7.40224496e-005,
          -1.43979069e-005, 6.97213545e-005, 1.63934616e-004,
          3.07976239e-004, 5.17238659e-005, 1.35232520e-004,
          -6.01974825e-005, 3.11057556e-005, -3.85887761e-005,
          3.63384097e-005, -3.10486348e-006, 2.77564004e-006,
          -1.64595607e-004, 9.27542642e-005, -3.48002126e-004,
          2.89525749e-004, -1.78229297e-004, 9.90025874e-005,
          -2.12048271e-005, 2.98023169e-005, -3.52834613e-005,
          3.92969341e-005, -4.95165768e-005, 6.46476838e-005,
          4.63760225e-005, 1.04408813e-004, 1.71957989e-004,
          2.49390810e-004, -5.82627945e-005, 8.96460842e-005,
          -3.97687327e-005, 6.55345357e-005, -1.36661647e-005,
          7.74590517e-005, -3.49795009e-004, 2.24527714e-004,
          -3.11915610e-005, -8.41614747e-005, -5.09440179e-005,
          -8.19303241e-005, -5.18397101e-005, -4.95828172e-005,
          3.46855522e-005, -2.13705334e-005, 1.19245487e-005,
          4.55378577e-005, -4.48827777e-005, 4.12367626e-005,
          1.33449750e-004, 2.79491651e-004, 2.12389950e-005,
          1.06747924e-004, -9.06823552e-005, 2.62116191e-006,
          -6.90736488e-005, 7.85381599e-006, -3.35897348e-005,
          -2.57089523e-005, -1.95080473e-004, 6.42696759e-005,
          -3.78486991e-004, 2.61041132e-004, -2.08714177e-004,
          7.05179918e-005, -5.16896980e-005, 1.31772458e-006,
          -6.57683340e-005, 1.08123422e-005, -8.00014459e-005,
          3.61630919e-005, 1.58911516e-005, 7.59242175e-005,
          1.41473123e-004, 2.20906208e-004, -8.87476635e-005,
          6.11614960e-005, -7.02536054e-005, 3.70499438e-005,
          -4.41510347e-005, 4.89744634e-005, -3.80279875e-004,
          1.96043125e-004, -6.16764301e-005, -1.12646070e-004,
          -8.14288869e-005, -1.10414912e-004, -8.23245791e-005,
          -7.80674090e-005, -2.27610053e-005, 6.69083893e-005,
          -7.95683300e-005, 6.26072942e-005, 9.87641906e-005,
          3.00862186e-004, -1.34465581e-005, 1.28118467e-004,
          -1.25367907e-004, 2.39916953e-005, -1.03759201e-004,
          2.92243494e-005, -6.82752870e-005, -4.33841888e-006,
          -2.29766025e-004, 8.56402039e-005, -4.13172558e-004,
          2.82411667e-004, -2.43399729e-004, 9.18885271e-005,
          -8.63752502e-005, 2.26882585e-005, -1.00453886e-004,
          3.21828775e-005, -1.14686998e-004, 5.75336271e-005,
          -1.87944006e-005, 9.72947528e-005, 1.06787564e-004,
          2.42276743e-004, -1.23433216e-004, 8.25320312e-005,
          -1.04939158e-004, 5.84204754e-005, -7.88365869e-005,
          7.03449987e-005, -4.14965441e-004, 2.17413661e-004,
          -9.63619896e-005, -9.12755349e-005, -1.16114439e-004,
          -8.90443844e-005, -1.17010131e-004, -5.66968774e-005,
          -5.68073265e-005, -4.30109549e-006, 1.21525198e-004,
          2.33953790e-004, 9.31444629e-006, 6.12100703e-005,
          -1.02606900e-004, -4.29166939e-005, -8.09981939e-005,
          -3.76840435e-005, -4.55142836e-005, -7.12468100e-005,
          -2.07005025e-004, 1.87318146e-005, -3.90411529e-004,
          2.15503285e-004, -2.20638714e-004, 2.49801378e-005,
          -6.36142431e-005, -4.42201344e-005, -7.76928791e-005,
          -3.47255154e-005, -9.19259910e-005, -9.37476489e-006,
          3.96660334e-006, 3.03863617e-005, 1.29548571e-004,
          1.75368346e-004, -1.00672216e-004, 1.56236365e-005,
          -8.21781505e-005, -8.48791478e-006, -5.60755834e-005,
          3.43660463e-006, -3.92204442e-004, 1.50505264e-004,
          -7.36009824e-005, -1.58183931e-004, -9.33534393e-005,
          -1.55952774e-004, -9.42491315e-005, -1.23605263e-004,
          1.78332528e-004, 2.38254885e-004, 6.61217709e-005,
          6.55111653e-005, -4.57995775e-005, -3.86155989e-005,
          -2.41908692e-005, -3.33829448e-005, 1.12930429e-005,
          -6.69457149e-005, -1.50197695e-004, 2.30329115e-005,
          -3.33604228e-004, 2.19804380e-004, -1.63831399e-004,
          2.92812329e-005, -6.80692074e-006, -3.99190358e-005,
          -2.08855563e-005, -3.04244204e-005, -3.51186682e-005,
          -5.07366985e-006, 6.07739275e-005, 3.46874549e-005,
          1.86355901e-004, 1.79669441e-004, -4.38648894e-005,
          1.99247315e-005, -2.53708276e-005, -4.18681930e-006,
          7.31742261e-007, 7.73769989e-006, -3.35397111e-004,
          1.54806359e-004, -1.67936560e-005, -1.53882836e-004,
          -3.65461128e-005, -1.51651679e-004, -3.74418050e-005,
          -1.19304175e-004, -1.12210750e-004, -1.72743719e-004,
          -2.24132105e-004, -2.76870502e-004, -2.02523384e-004,
          -2.71637837e-004, -1.67039485e-004, -3.05200607e-004,
          -3.28530208e-004, -2.15221982e-004, -5.11936727e-004,
          -1.84505061e-005, -3.42163927e-004, -2.08973652e-004,
          -1.85139448e-004, -2.78173917e-004, -1.99218077e-004,
          -2.68679316e-004, -2.13451189e-004, -2.43328555e-004,
          -1.17558593e-004, -2.03567426e-004, 8.02337399e-006,
          -5.85854395e-005, -2.22197414e-004, -2.18330155e-004,
          -2.03703356e-004, -2.42441703e-004, -1.77600785e-004,
          -2.30517195e-004, -5.13729639e-004, -8.34485327e-005,
          -1.95126180e-004, -3.92137707e-004, -2.14878630e-004,
          -3.89906578e-004, -2.15774329e-004, -3.57559067e-004,
          -1.11921348e-004, -1.04126768e-004, -9.03126420e-005,
          -9.88941101e-005, -5.48287280e-005, -1.32456873e-004,
          -2.16319473e-004, -4.24782556e-005, -3.99725977e-004,
          1.54293215e-004, -2.29953162e-004, -3.62299324e-005,
          -7.29286912e-005, -1.05430205e-004, -8.70073272e-005,
          -9.59355821e-005, -1.01240439e-004, -7.05848361e-005,
          -5.34784294e-006, -3.08237068e-005, 1.20234123e-004,
          1.14158283e-004, -1.09986664e-004, -4.55864320e-005,
          -9.14925986e-005, -6.96979841e-005, -6.53900279e-005,
          -5.77734645e-005, -4.01518890e-004, 8.92951939e-005,
          -8.29154305e-005, -2.19394002e-004, -1.02667880e-004,
          -2.17162844e-004, -1.03563572e-004, -1.84815333e-004,
          2.16087083e-005, 5.23265362e-006, 5.70926204e-005,
          -2.83301142e-005, -1.04398117e-004, 6.16485122e-005,
          -2.87804636e-004, 2.58419983e-004, -1.18031821e-004,
          6.78968354e-005, 3.89926572e-005, -1.30343722e-006,
          2.49140212e-005, 8.19118031e-006, 1.06809084e-005,
          3.35419318e-005, 1.06573505e-004, 7.33030538e-005,
          2.32155478e-004, 2.18285044e-004, 1.93468804e-006,
          5.85403322e-005, 2.04287498e-005, 3.44287801e-005,
          4.65313205e-005, 4.63532997e-005, -2.89597519e-004,
          1.93421962e-004, 2.90059215e-005, -1.15267234e-004,
          9.25346558e-006, -1.13036076e-004, 8.35777428e-006,
          -8.06885728e-005, 3.54839103e-005, -3.35627701e-005,
          -1.26006824e-004, 5.64158581e-005, -3.09413357e-004,
          2.53187318e-004, -1.39640528e-004, 6.26641777e-005,
          1.73839471e-005, -6.53609095e-006, 3.30531293e-006,
          2.95852692e-006, -1.09277998e-005, 2.83092759e-005,
          8.49647986e-005, 6.80704034e-005, 2.10546757e-004,
          2.13052394e-004, -1.96740202e-005, 5.33076782e-005,
          -1.17995910e-006, 2.91961278e-005, 2.49226105e-005,
          4.11206456e-005, -3.11206240e-004, 1.88189311e-004,
          7.39721281e-006, -1.20499884e-004, -1.23552427e-005,
          -1.18268734e-004, -1.32509349e-005, -8.59212232e-005,
          -1.61490738e-004, 8.99786246e-005, -3.44897271e-004,
          2.86750088e-004, -1.75124442e-004, 9.62269478e-005,
          -1.80999632e-005, 2.70266773e-005, -3.21785992e-005,
          3.65212945e-005, -4.64117111e-005, 6.18720442e-005,
          4.94808846e-005, 1.01633173e-004, 1.75062858e-004,
          2.46615149e-004, -5.51579324e-005, 8.68704446e-005,
          -3.66638706e-005, 6.27588961e-005, -1.05613008e-005,
          7.46834121e-005, -3.46690154e-004, 2.21752067e-004,
          -2.80866989e-005, -8.69371142e-005, -4.78391557e-005,
          -8.47059637e-005, -4.87348480e-005, -5.23584567e-005,
          -1.83406519e-004, 1.96771463e-004, -1.36337003e-005,
          6.24832182e-006, 1.43390775e-004, -6.29519491e-005,
          1.29312146e-004, -5.34573301e-005, 1.15079027e-004,
          -2.81065804e-005, 2.10971630e-004, 1.16545452e-005,
          3.36553581e-004, 1.56636539e-004, 1.06332809e-004,
          -3.10817859e-006, 1.24826867e-004, -2.72197303e-005,
          1.50929438e-004, -1.52952107e-005, -1.85199417e-004,
          1.31773442e-004, 1.33404043e-004, -1.76915739e-004,
          1.13651586e-004, -1.74684581e-004, 1.12755893e-004,
          -1.42337085e-004, 1.69772815e-004, -1.90523147e-004,
          3.26797308e-004, -2.59723427e-004, 3.12718650e-004,
          -2.50228797e-004, 2.98485538e-004, -2.24878051e-004,
          3.94378148e-004, -1.85116922e-004, 5.19960129e-004,
          -4.01349353e-005, 2.89739313e-004, -1.99879651e-004,
          3.08233401e-004, -2.23991199e-004, 3.34335957e-004,
          -2.12066676e-004, -1.79289646e-006, -6.49980211e-005,
          3.16810561e-004, -3.73687217e-004, 2.97058112e-004,
          -3.71456059e-004, 2.96162412e-004, -3.39108548e-004,
          1.57024479e-004, -6.92002723e-005, 1.42945835e-004,
          -5.97056533e-005, 1.28712723e-004, -3.43549036e-005,
          2.24605319e-004, 5.40622386e-006, 3.50187300e-004,
          1.50388209e-004, 1.19966506e-004, -9.35650041e-006,
          1.38460571e-004, -3.34680517e-005, 1.64563142e-004,
          -2.15435321e-005, -1.71565713e-004, 1.25525126e-004,
          1.47037747e-004, -1.83164069e-004, 1.27285282e-004,
          -1.80932911e-004, 1.26389597e-004, -1.48585401e-004,
          -1.40786351e-005, 9.49461810e-006, -2.83117479e-005,
          3.48453686e-005, 6.75808478e-005, 7.46064907e-005,
          1.93162821e-004, 2.19588488e-004, -3.70579692e-005,
          5.98437691e-005, -1.85639074e-005, 3.57322169e-005,
          7.53866289e-006, 4.76567366e-005, -3.28590191e-004,
          1.94725391e-004, -9.98673477e-006, -1.13963797e-004,
          -2.97391907e-005, -1.11732639e-004, -3.06348811e-005,
          -7.93851359e-005, -1.42331128e-005, 2.53507496e-005,
          8.16594838e-005, 6.51118753e-005, 2.07241450e-004,
          2.10093873e-004, -2.29793332e-005, 5.03491538e-005,
          -4.48527226e-006, 2.62375997e-005, 2.16172975e-005,
          3.81621212e-005, -3.14511562e-004, 1.85230776e-004,
          4.09189988e-006, -1.23458405e-004, -1.56605565e-005,
          -1.21227255e-004, -1.65562469e-005, -8.88797513e-005,
          9.58925957e-005, 3.97611257e-005, 2.21474562e-004,
          1.84743112e-004, -8.74622037e-006, 2.49984023e-005,
          9.74784143e-006, 8.86850557e-007, 3.58504112e-005,
          1.28113697e-005, -3.00278451e-004, 1.59880030e-004,
          1.83250122e-005, -1.48809166e-004, -1.42744261e-006,
          -1.46578008e-004, -2.32313459e-006, -1.14230505e-004,
          1.25581966e-004, 1.44981997e-004, -1.04638821e-004,
          -1.47627243e-005, -8.61447552e-005, -3.88742774e-005,
          -6.00421881e-005, -2.69497559e-005, -3.96171032e-004,
          1.20118901e-004, -7.75675871e-005, -1.88570295e-004,
          -9.73200367e-005, -1.86339137e-004, -9.82157289e-005,
          -1.53991627e-004, -2.30220787e-004, -1.59744712e-004,
          -2.11726729e-004, -1.83856260e-004, -1.85624158e-004,
          -1.71931752e-004, -5.21752983e-004, -2.48630895e-005,
          -2.03149553e-004, -3.33552278e-004, -2.22902003e-004,
          -3.31321120e-004, -2.23797702e-004, -2.98973609e-004,
          1.84940618e-005, -2.41115522e-005, 4.45966325e-005,
          -1.21870326e-005, -2.91532226e-004, 1.34881629e-004,
          2.70712335e-005, -1.73807566e-004, 7.31877753e-006,
          -1.71576408e-004, 6.42308578e-006, -1.39228912e-004,
          2.61025707e-005, 1.19245196e-005, -3.10026284e-004,
          1.58993178e-004, 8.57717168e-006, -1.49696018e-004,
          -1.11752834e-005, -1.47464860e-004, -1.20709756e-005,
          -1.15117356e-004, -3.36128840e-004, 1.47068655e-004,
          -1.75253990e-005, -1.61620526e-004, -3.72778522e-005,
          -1.59389383e-004, -3.81735445e-005, -1.27041872e-004,
          3.18603445e-004, -3.08689196e-004, 2.98850995e-004,
          -3.06458038e-004, 2.97955296e-004, -2.74110527e-004,
          -1.97524550e-005, 2.23115467e-006, -2.06481473e-005,
          3.45786575e-005, -8.95691926e-007, 3.23475033e-005 ]
      - [ -4.43320569e-005, -1.70348372e-004, -3.28549322e-005,
          -2.39630288e-004, 8.70599906e-005, -2.11653809e-004,
          1.50787950e-004, -1.16803159e-004, 2.51007114e-005,
          -1.52180321e-004, 3.83121005e-005, -2.38264853e-004,
          1.71029824e-004, -2.10857630e-004, 2.28734789e-004,
          -1.48585052e-004, 2.72331585e-004, -2.74207541e-005,
          1.05186569e-004, -2.34150342e-004, 1.19936689e-004,
          -1.21220393e-004, 1.11999238e-004, -2.97378010e-005,
          1.26612591e-004, 5.01787035e-005, 1.45184007e-004,
          -5.15089414e-005, 1.09120570e-004, -5.97698454e-005,
          1.19604993e-004, -4.13578236e-005, 1.51531145e-004,
          -8.12272701e-005, 1.37439361e-004, -4.80450326e-005,
          1.33678041e-004, -2.32402846e-004, 1.44798469e-004,
          -1.91810104e-004, 9.46098007e-005, -2.09536782e-004,
          2.09410879e-004, -2.33805360e-004, 1.43206053e-004,
          -2.22353614e-004, 1.53706642e-004, -1.98699447e-004,
          7.51440457e-005, -2.49215256e-004, 1.26900370e-004,
          -2.22430099e-004, 9.69261309e-005, -1.75278794e-004,
          1.79140290e-004, -2.23015551e-004, 1.37747702e-004,
          -2.18173023e-004, 1.09319655e-004, -2.01386865e-004,
          3.65906599e-004, 2.79048254e-004, 1.68857237e-004,
          -1.18275093e-004, 8.87200440e-005, -2.50049547e-004,
          1.46094782e-004, -2.71743425e-004, 1.81524127e-004,
          -3.05526366e-004, 7.98804467e-005, -1.81635507e-004,
          -1.84311415e-004, 1.66143567e-004, 4.53748289e-005,
          -1.75549125e-004, 1.97178684e-004, -2.35743340e-004,
          1.45348124e-004, -2.34348248e-004, 1.22135665e-004,
          -1.74479108e-004, 2.05195174e-004, -7.84905569e-005,
          3.44934000e-004, 1.34286529e-004, 7.89152400e-005,
          -1.64958197e-004, 1.36929302e-004, -1.94764609e-004,
          1.77264970e-004, -1.93097803e-004, -1.49961023e-004,
          3.98611883e-005, 1.61844800e-004, -2.91521021e-004,
          1.42199962e-004, -2.78109103e-004, 9.74018913e-005,
          -2.36262640e-004, 1.14771246e-005, -6.92819158e-005,
          1.31392051e-004, -4.13054295e-005, 1.95120010e-004,
          5.35452200e-005, 6.94327682e-005, 1.81680498e-005,
          8.26441610e-005, -6.79164732e-005, 2.15361884e-004,
          -4.05092578e-005, 2.73066835e-004, 2.17633278e-005,
          3.16663645e-004, 1.42927616e-004, 1.49518630e-004,
          -6.38019701e-005, 1.64268742e-004, 4.91279825e-005,
          1.56331298e-004, 1.40610573e-004, 1.70944637e-004,
          2.20527072e-004, 1.89516053e-004, 1.18839431e-004,
          1.53452624e-004, 1.10578527e-004, 1.63937046e-004,
          1.28990549e-004, 1.95863206e-004, 8.91211093e-005,
          1.81771422e-004, 1.22303347e-004, 1.78010101e-004,
          -6.20544743e-005, 1.89130515e-004, -2.14617321e-005,
          1.38941861e-004, -3.91884096e-005, 2.53742939e-004,
          -6.34569806e-005, 1.87538099e-004, -5.20052345e-005,
          1.98038702e-004, -2.83510653e-005, 1.19476106e-004,
          -7.88668767e-005, 1.71232430e-004, -5.20817230e-005,
          1.41258191e-004, -4.93042080e-006, 2.23472351e-004,
          -5.26671756e-005, 1.82079762e-004, -4.78246475e-005,
          1.53651723e-004, -3.10384858e-005, 4.10238659e-004,
          4.49396641e-004, 2.13189298e-004, 5.20732865e-005,
          1.33052105e-004, -7.97011598e-005, 1.90426843e-004,
          -1.01395060e-004, 2.25856187e-004, -1.35177994e-004,
          1.24212514e-004, -1.12871257e-005, -1.39979369e-004,
          3.36491939e-004, 8.97068894e-005, -5.20074582e-006,
          2.41510730e-004, -6.53949683e-005, 1.89680184e-004,
          -6.39998689e-005, 1.66467726e-004, -4.13073985e-006,
          2.49527249e-004, 9.18578153e-005, 3.89266061e-004,
          3.04634916e-004, 1.23247301e-004, 5.39017356e-006,
          1.81261363e-004, -2.44162275e-005, 2.21597031e-004,
          -2.27494365e-005, -1.05628962e-004, 2.10209560e-004,
          2.06176861e-004, -1.21172656e-004, 1.86532023e-004,
          -1.07760730e-004, 1.41733952e-004, -6.59142679e-005,
          1.19914926e-004, 2.79764863e-005, 1.83642886e-004,
          1.22827129e-004, 5.79556436e-005, 8.74499674e-005,
          7.11670364e-005, 1.36544020e-006, 2.03884760e-004,
          2.87726562e-005, 2.61589710e-004, 9.10452436e-005,
          3.05186521e-004, 2.12209532e-004, 1.38041505e-004,
          5.47994750e-006, 1.52791617e-004, 1.18409902e-004,
          1.44854173e-004, 2.09892489e-004, 1.59467512e-004,
          2.89808988e-004, 1.78038928e-004, 1.88121354e-004,
          1.41975499e-004, 1.79860450e-004, 1.52459921e-004,
          1.98272464e-004, 1.84386081e-004, 1.58403025e-004,
          1.70294297e-004, 1.91585263e-004, 1.66532976e-004,
          7.22744517e-006, 1.77653390e-004, 4.78201837e-005,
          1.27464737e-004, 3.00935080e-005, 2.42265814e-004,
          5.82493522e-006, 1.76060974e-004, 1.72766813e-005,
          1.86561578e-004, 4.09308486e-005, 1.07998982e-004,
          -9.58496366e-006, 1.59755306e-004, 1.72001910e-005,
          1.29781067e-004, 6.43514941e-005, 2.11995226e-004,
          1.66147420e-005, 1.70602638e-004, 2.14572683e-005,
          1.42174598e-004, 3.82434337e-005, 3.98761535e-004,
          5.18678571e-004, 2.01712173e-004, 1.21355202e-004,
          1.21574980e-004, -1.04192450e-005, 1.78949718e-004,
          -3.21131447e-005, 2.14379063e-004, -6.58960780e-005,
          1.12735383e-004, 5.79947919e-005, -1.51456494e-004,
          4.05773870e-004, 7.82297648e-005, 6.40811704e-005,
          2.30033605e-004, 3.88694571e-006, 1.78203059e-004,
          5.28204373e-006, 1.54990601e-004, 6.51511800e-005,
          2.38050110e-004, 1.61139731e-004, 3.77788936e-004,
          3.73916817e-004, 1.11770176e-004, 7.46720907e-005,
          1.69784238e-004, 4.48656901e-005, 2.10119906e-004,
          4.65324811e-005, -1.17106087e-004, 2.79491476e-004,
          1.94699736e-004, -5.18907364e-005, 1.75054898e-004,
          -3.84788109e-005, 1.30256827e-004, 3.36764970e-006,
          6.37279591e-005, 9.48506495e-005, -6.19592829e-005,
          5.94734774e-005, -4.87478901e-005, -2.66110474e-005,
          8.39698332e-005, 7.96169559e-007, 1.41674798e-004,
          6.30687573e-005, 1.85271594e-004, 1.84233053e-004,
          1.81265768e-005, -2.24965388e-005, 3.28766946e-005,
          9.04334156e-005, 2.49392433e-005, 1.81916010e-004,
          3.95525931e-005, 2.61832494e-004, 5.81240056e-005,
          1.60144860e-004, 2.20605780e-005, 1.51883956e-004,
          3.25449982e-005, 1.70295985e-004, 6.44711545e-005,
          1.30426532e-004, 5.03793708e-005, 1.63608769e-004,
          4.66180500e-005, -2.07490411e-005, 5.77384708e-005,
          1.98436974e-005, 7.54980647e-006, 2.11702104e-006,
          1.22350888e-004, -2.21515511e-005, 5.61460547e-005,
          -1.06998050e-005, 6.66466512e-005, 1.29543632e-005,
          -1.19159467e-005, -3.75614509e-005, 3.98403827e-005,
          -1.07762953e-005, 9.86613486e-006, 3.63750078e-005,
          9.20802995e-005, -1.13617452e-005, 5.06877041e-005,
          -6.51921891e-006, 2.22596664e-005, 1.02669446e-005,
          2.78846594e-004, 4.90702048e-004, 8.17972395e-005,
          9.33787160e-005, 1.66005395e-006, -3.83957340e-005,
          5.90347954e-005, -6.00896310e-005, 9.44641361e-005,
          -9.38725716e-005, -7.17954254e-006, 3.00183037e-005,
          -2.71371420e-004, 3.77797376e-004, -4.16851653e-005,
          3.61046841e-005, 1.10118686e-004, -2.40895424e-005,
          5.82881294e-005, -2.26944430e-005, 3.50756745e-005,
          3.71746901e-005, 1.18135191e-004, 1.33163237e-004,
          2.57873995e-004, 3.45940323e-004, -8.14475243e-006,
          4.66956008e-005, 4.98693153e-005, 1.68892020e-005,
          9.02049724e-005, 1.85559929e-005, -2.37021013e-004,
          2.51514983e-004, 7.47848026e-005, -7.98672263e-005,
          5.51399753e-005, -6.64553008e-005, 1.03418961e-005,
          -2.46088384e-005, -1.25687249e-004, -3.53771684e-005,
          -1.12475849e-004, -1.21461693e-004, 2.02418705e-005,
          -9.40544778e-005, 7.79468319e-005, -3.17818885e-005,
          1.21543635e-004, 8.93824035e-005, -4.56013840e-005,
          -1.17347190e-004, -3.08512645e-005, -4.41723523e-006,
          -3.87887158e-005, 8.70653530e-005, -2.41753696e-005,
          1.66981859e-004, -5.60395347e-006, 6.52942181e-005,
          -4.16673829e-005, 5.70333104e-005, -3.11829608e-005,
          7.54453358e-005, 7.43193652e-007, 3.55758893e-005,
          -1.33485901e-005, 6.87581269e-005, -1.71099109e-005,
          -1.15599687e-004, -5.98949146e-006, -7.50069521e-005,
          -5.61781526e-005, -9.27336296e-005, 5.86229253e-005,
          -1.17002201e-004, -7.58190617e-006, -1.05550454e-004,
          2.91869310e-006, -8.18962872e-005, -7.56439040e-005,
          -1.32412097e-004, -2.38875764e-005, -1.05626939e-004,
          -5.38618260e-005, -5.84756381e-005, 2.83523423e-005,
          -1.06212392e-004, -1.30402550e-005, -1.01369864e-004,
          -4.14682945e-005, -8.45837058e-005, 2.15118649e-004,
          3.95851413e-004, 1.80692823e-005, -1.47193350e-006,
          -6.20679057e-005, -1.33246373e-004, -4.69316547e-006,
          -1.54940280e-004, 3.07361770e-005, -1.88723221e-004,
          -7.09075030e-005, -6.48323476e-005, -3.35099379e-004,
          2.82946741e-004, -1.05413121e-004, -5.87459654e-005,
          4.63907236e-005, -1.18940188e-004, -5.43983106e-006,
          -1.17545089e-004, -2.86522863e-005, -5.76759594e-005,
          5.44072282e-005, 3.83125953e-005, 1.94146036e-004,
          2.51089688e-004, -7.18727097e-005, -4.81550451e-005,
          -1.38586456e-005, -7.79614420e-005, 2.64770151e-005,
          -7.62946511e-005, -3.00748972e-004, 1.56664348e-004,
          1.10568426e-005, -1.74717876e-004, -8.58798467e-006,
          -1.61305943e-004, -5.33860657e-005, -1.19459488e-004,
          1.32113901e-005, -8.60845248e-005, 1.45929109e-004,
          -5.86773094e-005, 2.03634074e-004, 3.59527940e-006,
          2.47230870e-004, 1.24759565e-004, 8.00858616e-005,
          -8.19700144e-005, 9.48359739e-005, 3.09599345e-005,
          8.68985226e-005, 1.22442521e-004, 1.01511876e-004,
          2.02359020e-004, 1.20083292e-004, 1.00671386e-004,
          8.40198627e-005, 9.24104825e-005, 9.45042848e-005,
          1.10822504e-004, 1.26430430e-004, 7.09530577e-005,
          1.12338654e-004, 1.04135295e-004, 1.08577333e-004,
          -8.02225186e-005, 1.19697754e-004, -3.96297801e-005,
          6.95090857e-005, -5.73564575e-005, 1.84310164e-004,
          -8.16250322e-005, 1.18105338e-004, -7.01732861e-005,
          1.28605941e-004, -4.65191151e-005, 5.00433343e-005,
          -9.70349283e-005, 1.01799662e-004, -7.02497709e-005,
          7.18254159e-005, -2.30984697e-005, 1.54039590e-004,
          -7.08352236e-005, 1.12646987e-004, -6.59926955e-005,
          8.42189474e-005, -4.92065337e-005, 3.40805884e-004,
          4.31228604e-004, 1.43756522e-004, 3.39052349e-005,
          6.36193363e-005, -9.78692115e-005, 1.20994075e-004,
          -1.19563112e-004, 1.56423412e-004, -1.53346045e-004,
          5.47797390e-005, -2.94551755e-005, -2.09412130e-004,
          3.18323902e-004, 2.02741176e-005, -2.33687952e-005,
          1.72077969e-004, -8.35630199e-005, 1.20247409e-004,
          -8.21679205e-005, 9.70349574e-005, -2.22987892e-005,
          1.80094474e-004, 7.36897637e-005, 3.19833285e-004,
          2.86466850e-004, 5.38145287e-005, -1.27778758e-005,
          1.11828595e-004, -4.25842773e-005, 1.52164255e-004,
          -4.09174863e-005, -1.75061738e-004, 1.92041509e-004,
          1.36744085e-004, -1.39340700e-004, 1.17099255e-004,
          -1.25928782e-004, 7.23011763e-005, -8.40823195e-005,
          1.32717716e-004, 2.74072172e-005, 1.90422681e-004,
          8.96798010e-005, 2.34019491e-004, 2.10844097e-004,
          6.68744688e-005, 4.11450765e-006, 8.16245883e-005,
          1.17044459e-004, 7.36871370e-005, 2.08527053e-004,
          8.83004832e-005, 2.88443553e-004, 1.06871899e-004,
          1.86755904e-004, 7.08084699e-005, 1.78495000e-004,
          8.12928920e-005, 1.96907029e-004, 1.13219045e-004,
          1.57037590e-004, 9.91272609e-005, 1.90219813e-004,
          9.53659401e-005, 5.86200531e-006, 1.06486361e-004,
          4.64547447e-005, 5.62976966e-005, 2.87280673e-005,
          1.71098771e-004, 4.45949490e-006, 1.04893945e-004,
          1.59112424e-005, 1.15394541e-004, 3.95654097e-005,
          3.68319452e-005, -1.09504035e-005, 8.85882764e-005,
          1.58347520e-005, 5.86140268e-005, 6.29860515e-005,
          1.40828197e-004, 1.52493012e-005, 9.94355942e-005,
          2.00918275e-005, 7.10075547e-005, 3.68779911e-005,
          3.27594491e-004, 5.17313136e-004, 1.30545130e-004,
          1.19989760e-004, 5.04079435e-005, -1.17846857e-005,
          1.07782689e-004, -3.34785836e-005, 1.43212033e-004,
          -6.72615206e-005, 4.15683498e-005, 5.66293493e-005,
          -2.22623523e-004, 4.04408434e-004, 7.06272749e-006,
          6.27157278e-005, 1.58866576e-004, 2.52150539e-006,
          1.07036023e-004, 3.91660342e-006, 8.38235646e-005,
          6.37857374e-005, 1.66883081e-004, 1.59774296e-004,
          3.06621892e-004, 3.72551382e-004, 4.06031395e-005,
          7.33066481e-005, 9.86172090e-005, 4.35002476e-005,
          1.38952862e-004, 4.51670385e-005, -1.88273130e-004,
          2.78126041e-004, 1.23532693e-004, -5.32561753e-005,
          1.03887869e-004, -3.98442498e-005, 5.90897871e-005,
          2.00220938e-006, 5.77049650e-005, 6.22725856e-005,
          1.01301768e-004, 1.83436874e-004, -6.58432546e-005,
          -2.32927086e-005, -5.10931350e-005, 8.96372439e-005,
          -5.90305863e-005, 1.81119831e-004, -4.44172401e-005,
          2.61036330e-004, -2.58458240e-005, 1.59348696e-004,
          -6.19092534e-005, 1.51087792e-004, -5.14248313e-005,
          1.69499806e-004, -1.94986769e-005, 1.29630367e-004,
          -3.35904588e-005, 1.62812605e-004, -3.73517832e-005,
          -2.15452110e-005, -2.62313624e-005, 1.90475275e-005,
          -7.64200231e-005, 1.32085154e-006, 3.83810548e-005,
          -2.29477209e-005, -2.78237767e-005, -1.14959748e-005,
          -1.73231765e-005, 1.21581934e-005, -9.58857781e-005,
          -3.83576189e-005, -4.41294469e-005, -1.15724652e-005,
          -7.41036929e-005, 3.55788397e-005, 8.11047266e-006,
          -1.21579151e-005, -3.32821255e-005, -7.31538876e-006,
          -6.17101614e-005, 9.47077569e-006, 1.94876775e-004,
          4.89905884e-004, -2.17258867e-006, 9.25825443e-005,
          -8.23097798e-005, -3.91919020e-005, -2.49350360e-005,
          -6.08858027e-005, 1.04943065e-005, -9.46687360e-005,
          -9.11493698e-005, 2.92221339e-005, -3.55341239e-004,
          3.77001212e-004, -1.25654988e-004, 3.53085125e-005,
          2.61488531e-005, -2.48857104e-005, -2.56817002e-005,
          -2.34906129e-005, -4.88941550e-005, 3.63785184e-005,
          3.41653576e-005, 1.32367073e-004, 1.73904162e-004,
          3.45144159e-004, -9.21145838e-005, 4.58994327e-005,
          -3.41005143e-005, 1.60930322e-005, 6.23514507e-006,
          1.77598231e-005, -3.20990861e-004, 2.50718818e-004,
          -9.18502701e-006, -8.06633907e-005, -2.88298561e-005,
          -6.72514652e-005, -7.36279326e-005, -2.54050065e-005,
          4.35968032e-005, 1.21164288e-004, -1.23548220e-004,
          -8.55652979e-005, -1.08798100e-004, 2.73646547e-005,
          -1.16735551e-004, 1.18847245e-004, -1.02122205e-004,
          1.98763752e-004, -8.35507890e-005, 9.70761030e-005,
          -1.19614218e-004, 8.88151990e-005, -1.09129796e-004,
          1.07227221e-004, -7.72036365e-005, 6.73577815e-005,
          -9.12954201e-005, 1.00540012e-004, -9.50567483e-005,
          -8.38178021e-005, -8.39363274e-005, -4.32250599e-005,
          -1.34124988e-004, -6.09517374e-005, -1.93239102e-005,
          -8.52203084e-005, -8.55287362e-005, -7.37685623e-005,
          -7.50281397e-005, -5.01143950e-005, -1.53590736e-004,
          -1.00630212e-004, -1.01834412e-004, -7.38450544e-005,
          -1.31808658e-004, -2.66937495e-005, -4.95944914e-005,
          -7.44304998e-005, -9.09870869e-005, -6.95879789e-005,
          -1.19415126e-004, -5.28018136e-005, 1.37171810e-004,
          4.27633320e-004, -5.98775514e-005, 3.03099569e-005,
          -1.40014745e-004, -1.01464488e-004, -8.26399992e-005,
          -1.23158388e-004, -4.72106585e-005, -1.56941329e-004,
          -1.48854335e-004, -3.30504554e-005, -4.13046218e-004,
          3.14728619e-004, -1.83359953e-004, -2.69640750e-005,
          -3.15561083e-005, -8.71582961e-005, -8.33866652e-005,
          -8.57632040e-005, -1.06599116e-004, -2.58940690e-005,
          -2.35396055e-005, 7.00944875e-005, 1.16199204e-004,
          2.82871566e-004, -1.49819549e-004, -1.63731547e-005,
          -9.18054793e-005, -4.61795571e-005, -5.14698186e-005,
          -4.45127662e-005, -3.78695811e-004, 1.88446240e-004,
          -6.68899884e-005, -1.42935984e-004, -8.65348193e-005,
          -1.29524051e-004, -1.31332898e-004, -8.76775957e-005,
          -1.67145015e-004, -2.06729586e-004, -1.52394903e-004,
          -9.37996374e-005, -1.60332347e-004, -2.31704644e-006,
          -1.45719008e-004, 7.75994558e-005, -1.27147592e-004,
          -2.40881855e-005, -1.63211022e-004, -3.23490895e-005,
          -1.52726599e-004, -1.39370695e-005, -1.20800440e-004,
          -5.38065142e-005, -1.34892223e-004, -2.06242767e-005,
          -1.38653544e-004, -2.04982091e-004, -1.27533131e-004,
          -1.64389348e-004, -1.77721784e-004, -1.82116026e-004,
          -6.29207134e-005, -2.06384604e-004, -1.29125547e-004,
          -1.94932858e-004, -1.18624943e-004, -1.71278691e-004,
          -1.97187546e-004, -2.21794500e-004, -1.45431215e-004,
          -1.95009343e-004, -1.75405468e-004, -1.47858038e-004,
          -9.31912946e-005, -1.95594796e-004, -1.34583897e-004,
          -1.90752267e-004, -1.63011937e-004, -1.73966109e-004,
          9.35750068e-005, 3.06469010e-004, -1.03474355e-004,
          -9.08543370e-005, -1.83611541e-004, -2.22628776e-004,
          -1.26236802e-004, -2.44322669e-004, -9.08074580e-005,
          -2.78105610e-004, -1.92451145e-004, -1.54214751e-004,
          -4.56643000e-004, 1.93564323e-004, -2.26956763e-004,
          -1.48128369e-004, -7.51529151e-005, -2.08322585e-004,
          -1.26983461e-004, -2.06927492e-004, -1.50195920e-004,
          -1.47058367e-004, -6.71364105e-005, -5.10698046e-005,
          7.26024009e-005, 1.61707285e-004, -1.93416345e-004,
          -1.37537441e-004, -1.35402282e-004, -1.67343853e-004,
          -9.50666217e-005, -1.65677062e-004, -4.22292622e-004,
          6.72819442e-005, -1.10486792e-004, -2.64100265e-004,
          -1.30131622e-004, -2.50688347e-004, -1.74929693e-004,
          -2.08841884e-004, 1.47501178e-005, 1.12929949e-004,
          6.81266556e-006, 2.04412543e-004, 2.14260144e-005,
          2.84329057e-004, 3.99974306e-005, 1.82641408e-004,
          3.93400114e-006, 1.74380504e-004, 1.44184223e-005,
          1.92792519e-004, 4.63445758e-005, 1.52923079e-004,
          3.22527922e-005, 1.86105317e-004, 2.84914713e-005,
          1.74749766e-006, 3.96118921e-005, 4.23402344e-005,
          -1.05767713e-005, 2.46135605e-005, 1.04224309e-004,
          3.44987541e-007, 3.80194761e-005, 1.17967338e-005,
          4.85200762e-005, 3.54509029e-005, -3.00425254e-005,
          -1.50649112e-005, 2.17138058e-005, 1.17202444e-005,
          -8.26044288e-006, 5.88715484e-005, 7.39537281e-005,
          1.11347945e-005, 3.25611290e-005, 1.59773208e-005,
          4.13308862e-006, 3.27634843e-005, 2.60720029e-004,
          5.13198611e-004, 6.36706609e-005, 1.15875257e-004,
          -1.64665234e-005, -1.58991934e-005, 4.09082168e-005,
          -3.75930940e-005, 7.63375574e-005, -7.13760310e-005,
          -2.53061207e-005, 5.25148425e-005, -2.89497984e-004,
          4.00293909e-004, -5.98117404e-005, 5.86012211e-005,
          9.19921076e-005, -1.59300214e-006, 4.01615507e-005,
          -1.97903958e-007, 1.69490977e-005, 5.96712271e-005,
          1.00008612e-004, 1.55659785e-004, 2.39747416e-004,
          3.68436886e-004, -2.62713293e-005, 6.91921450e-005,
          3.17427366e-005, 3.93857408e-005, 7.20784010e-005,
          4.10525317e-005, -2.55147606e-004, 2.74011545e-004,
          5.66582275e-005, -5.73706857e-005, 3.70133966e-005,
          -4.39587602e-005, -7.78468166e-006, -2.11229803e-006,
          -7.93745221e-006, 9.14825941e-005, 6.67589575e-006,
          1.71399093e-004, 2.52473110e-005, 6.97114519e-005,
          -1.08161166e-005, 6.14505479e-005, -3.31695645e-007,
          7.98625697e-005, 3.15944599e-005, 3.99931232e-005,
          1.75026744e-005, 7.31753607e-005, 1.37413535e-005,
          -1.11182453e-004, 2.48617725e-005, -7.05897182e-005,
          -2.53268900e-005, -8.83163884e-005, 8.94741897e-005,
          -1.12584967e-004, 2.32693583e-005, -1.01133221e-004,
          3.37699566e-005, -7.74790460e-005, -4.47926432e-005,
          -1.27994863e-004, 6.96368807e-006, -1.01209705e-004,
          -2.30105616e-005, -5.40584042e-005, 5.92036085e-005,
          -1.01795158e-004, 1.78110095e-005, -9.69526300e-005,
          -1.06170301e-005, -8.01664646e-005, 2.45969917e-004,
          4.00268647e-004, 4.89205449e-005, 2.94530196e-006,
          -3.12166412e-005, -1.28829139e-004, 2.61580990e-005,
          -1.50523047e-004, 6.15874451e-005, -1.84305987e-004,
          -4.00562385e-005, -6.04151101e-005, -3.04248097e-004,
          2.87363975e-004, -7.45618599e-005, -5.43287279e-005,
          7.72419880e-005, -1.14522954e-004, 2.54114348e-005,
          -1.13127855e-004, 2.19897925e-006, -5.32587219e-005,
          8.52584926e-005, 4.27298328e-005, 2.24997304e-004,
          2.55506922e-004, -4.10214489e-005, -4.37378112e-005,
          1.69926188e-005, -7.35442081e-005, 5.73282814e-005,
          -7.18774172e-005, -2.69897719e-004, 1.61081582e-004,
          4.19081080e-005, -1.70300642e-004, 2.22632789e-005,
          -1.56888709e-004, -2.25347994e-005, -1.15042247e-004,
          1.46133480e-005, 7.99165064e-005, 3.31847659e-005,
          -2.17711404e-005, -2.87866442e-006, -3.00320426e-005,
          7.60575722e-006, -1.16200226e-005, 3.95319112e-005,
          -5.14894673e-005, 2.54401275e-005, -1.83072298e-005,
          2.16788067e-005, -2.02665047e-004, 3.27992275e-005,
          -1.62072305e-004, -1.73894368e-005, -1.79798983e-004,
          9.74116410e-005, -2.04067561e-004, 3.12068114e-005,
          -1.92615815e-004, 4.17074116e-005, -1.68961633e-004,
          -3.68551919e-005, -2.19477457e-004, 1.49011403e-005,
          -1.92692300e-004, -1.50731084e-005, -1.45540995e-004,
          6.71410598e-005, -1.93277752e-004, 2.57484626e-005,
          -1.88435224e-004, -2.67957694e-006, -1.71649051e-004,
          2.53907376e-004, 3.08786082e-004, 5.68579999e-005,
          -8.85372865e-005, -2.32791899e-005, -2.20311733e-004,
          3.40955521e-005, -2.42005641e-004, 6.95248964e-005,
          -2.75788567e-004, -3.21187872e-005, -1.51897693e-004,
          -2.96310667e-004, 1.95881366e-004, -6.66244086e-005,
          -1.45811326e-004, 8.51794393e-005, -2.06005541e-004,
          3.33488861e-005, -2.04610449e-004, 1.01364321e-005,
          -1.44741309e-004, 9.31959439e-005, -4.87527577e-005,
          2.32934748e-004, 1.64024328e-004, -3.30839939e-005,
          -1.35220398e-004, 2.49300720e-005, -1.65026795e-004,
          6.52657327e-005, -1.63360004e-004, -2.61960260e-004,
          6.95989875e-005, 4.98455593e-005, -2.61783222e-004,
          3.02007320e-005, -2.48371303e-004, -1.45973463e-005,
          -2.06524841e-004, 1.85714161e-005, -1.01687641e-004,
          -1.74920133e-005, -1.09948545e-004, -7.00759119e-006,
          -9.15365235e-005, 2.49185632e-005, -1.31405963e-004,
          1.08267795e-005, -9.82237325e-005, 7.06545779e-006,
          -2.82581546e-004, 1.81858777e-005, -2.41988804e-004,
          -3.20027866e-005, -2.59715482e-004, 8.27982949e-005,
          -2.83984060e-004, 1.65934634e-005, -2.72532314e-004,
          2.70940618e-005, -2.48878147e-004, -5.14685380e-005,
          -2.99393956e-004, 2.87792403e-007, -2.72608799e-004,
          -2.96864564e-005, -2.25457494e-004, 5.25277101e-005,
          -2.73194251e-004, 1.11351137e-005, -2.68351723e-004,
          -1.72929249e-005, -2.51565565e-004, 2.39294008e-004,
          2.28869569e-004, 4.22446501e-005, -1.68453786e-004,
          -3.78925361e-005, -3.00228246e-004, 1.94822042e-005,
          -3.21922125e-004, 5.49115466e-005, -3.55705066e-004,
          -4.67321333e-005, -2.31814207e-004, -3.10923991e-004,
          1.15964867e-004, -8.12377548e-005, -2.25727825e-004,
          7.05660932e-005, -2.85922055e-004, 1.87355381e-005,
          -2.84526963e-004, -4.47691627e-006, -2.24657822e-004,
          7.85825978e-005, -1.28669257e-004, 2.18321409e-004,
          8.41078290e-005, -4.76973437e-005, -2.15136897e-004,
          1.03167231e-005, -2.44943309e-004, 5.06523829e-005,
          -2.43276518e-004, -2.76573614e-004, -1.03175144e-005,
          3.52322131e-005, -3.41699721e-004, 1.55873840e-005,
          -3.28287802e-004, -2.92106943e-005, -2.86441355e-004,
          -3.60634294e-005, -8.26090400e-006, -2.55790073e-005,
          1.01511168e-005, 6.34714706e-006, -2.97183269e-005,
          -7.74463660e-006, 3.46390925e-006, -1.15059584e-005,
          -1.80893898e-004, -3.85538215e-007, -1.40301170e-004,
          -5.05742028e-005, -1.58027848e-004, 6.42268787e-005,
          -1.82296411e-004, -1.97795293e-006, -1.70844665e-004,
          8.52264657e-006, -1.47190498e-004, -7.00399542e-005,
          -1.97706308e-004, -1.82836229e-005, -1.70921165e-004,
          -4.82578725e-005, -1.23769860e-004, 3.39562976e-005,
          -1.71506603e-004, -7.43630198e-006, -1.66664089e-004,
          -3.58643410e-005, -1.49877917e-004, 2.20722592e-004,
          3.30557203e-004, 2.36732340e-005, -6.67661516e-005,
          -5.64639522e-005, -1.98540598e-004, 9.10787833e-007,
          -2.20234491e-004, 3.63401305e-005, -2.54017417e-004,
          -6.53035531e-005, -1.30126558e-004, -3.29495408e-004,
          2.17652516e-004, -9.98091709e-005, -1.24040176e-004,
          5.19946771e-005, -1.84234406e-004, 1.64122412e-007,
          -1.82839300e-004, -2.30483329e-005, -1.22970174e-004,
          6.00111816e-005, -2.69816192e-005, 1.99749993e-004,
          1.85795478e-004, -6.62687598e-005, -1.13449263e-004,
          -8.25469215e-006, -1.43255660e-004, 3.20809668e-005,
          -1.41588869e-004, -2.95145030e-004, 9.13701297e-005,
          1.66607970e-005, -2.40012087e-004, -2.98403188e-006,
          -2.26600168e-004, -4.77821122e-005, -1.84753706e-004,
          1.04844212e-005, 1.84120199e-005, 4.24105747e-005,
          -2.14574229e-005, 2.83187910e-005, 1.17248128e-005,
          2.45574702e-005, -1.72633008e-004, 3.56778910e-005,
          -1.32040266e-004, -1.45107724e-005, -1.49766944e-004,
          1.00290308e-004, -1.74035507e-004, 3.40854749e-005,
          -1.62583761e-004, 4.45860751e-005, -1.38929594e-004,
          -3.39765247e-005, -1.89445404e-004, 1.77798047e-005,
          -1.62660261e-004, -1.21944440e-005, -1.15508949e-004,
          7.00197270e-005, -1.63245699e-004, 2.86271261e-005,
          -1.58403185e-004, 1.99087296e-007, -1.41617013e-004,
          2.56786036e-004, 3.38818121e-004, 5.97366634e-005,
          -5.85052439e-005, -2.04005246e-005, -1.90279694e-004,
          3.69742156e-005, -2.11973587e-004, 7.24035563e-005,
          -2.45756528e-004, -2.92401219e-005, -1.21865654e-004,
          -2.93431978e-004, 2.25913420e-004, -6.37457415e-005,
          -1.15779279e-004, 8.80581065e-005, -1.75973502e-004,
          3.62275496e-005, -1.74578396e-004, 1.30150966e-005,
          -1.14709270e-004, 9.60746111e-005, -1.87207152e-005,
          2.35813422e-004, 1.94056382e-004, -3.02053304e-005,
          -1.05188359e-004, 2.78087355e-005, -1.34994756e-004,
          6.81443998e-005, -1.33327965e-004, -2.59081600e-004,
          9.96310337e-005, 5.27242264e-005, -2.31751183e-004,
          3.30793955e-005, -2.18339264e-004, -1.17186828e-005,
          -1.76492802e-004, 3.19261526e-005, -3.98694428e-005,
          1.78343707e-005, -6.68720759e-006, 1.40730490e-005,
          -1.91045023e-004, 2.51934689e-005, -1.50452281e-004,
          -2.49951936e-005, -1.68178958e-004, 8.98058861e-005,
          -1.92447536e-004, 2.36010546e-005, -1.80995790e-004,
          3.41016530e-005, -1.57341623e-004, -4.44609468e-005,
          -2.07857433e-004, 7.29538351e-006, -1.81072275e-004,
          -2.26788652e-005, -1.33920970e-004, 5.95353013e-005,
          -1.81657728e-004, 1.81427058e-005, -1.76815200e-004,
          -1.02853337e-005, -1.60029042e-004, 2.46301614e-004,
          3.20406078e-004, 4.92522413e-005, -7.69172693e-005,
          -3.08849449e-005, -2.08691708e-004, 2.64897953e-005,
          -2.30385616e-004, 6.19191342e-005, -2.64168542e-004,
          -3.97245421e-005, -1.40277683e-004, -3.03916400e-004,
          2.07501391e-004, -7.42301636e-005, -1.34191301e-004,
          7.75736844e-005, -1.94385517e-004, 2.57431293e-005,
          -1.92990425e-004, 2.53067492e-006, -1.33121284e-004,
          8.55901890e-005, -3.71327369e-005, 2.25329000e-004,
          1.75644353e-004, -4.06897525e-005, -1.23600374e-004,
          1.73243152e-005, -1.53406785e-004, 5.76599741e-005,
          -1.51739980e-004, -2.69566022e-004, 8.12190119e-005,
          4.22398043e-005, -2.50163197e-004, 2.25949752e-005,
          -2.36751279e-004, -2.22031031e-005, -1.94904816e-004,
          -1.40917837e-005, 3.31822375e-005, -1.78531045e-005,
          -1.51175584e-004, -6.73268505e-006, -1.10582841e-004,
          -5.69213480e-005, -1.28309519e-004, 5.78797299e-005,
          -1.52578083e-004, -8.32509977e-006, -1.41126337e-004,
          2.17549950e-006, -1.17472169e-004, -7.63870994e-005,
          -1.67987993e-004, -2.46307700e-005, -1.41202836e-004,
          -5.46050178e-005, -9.40515311e-005, 2.76091487e-005,
          -1.41788289e-004, -1.37834495e-005, -1.36945760e-004,
          -4.22114899e-005, -1.20159588e-004, 2.14375454e-004,
          3.60275531e-004, 1.73260887e-005, -3.70478228e-005,
          -6.28111011e-005, -1.68822269e-004, -5.43635906e-006,
          -1.90516163e-004, 2.99929834e-005, -2.24299103e-004,
          -7.16506984e-005, -1.00408230e-004, -3.35842575e-004,
          2.47370830e-004, -1.06156316e-004, -9.43218547e-005,
          4.56475318e-005, -1.54516078e-004, -6.18302465e-006,
          -1.53120985e-004, -2.93954799e-005, -9.32518451e-005,
          5.36640327e-005, 2.73670776e-006, 1.93402841e-004,
          2.15513806e-004, -7.26159051e-005, -8.37309344e-005,
          -1.46018392e-005, -1.13537331e-004, 2.57338215e-005,
          -1.11870540e-004, -3.01492168e-004, 1.21088458e-004,
          1.03136490e-005, -2.10293758e-004, -9.33117917e-006,
          -1.96881840e-004, -5.41292575e-005, -1.55035377e-004,
          -3.76132130e-006, -1.84357821e-004, 7.35909862e-006,
          -1.43765079e-004, -4.28295643e-005, -1.61491756e-004,
          7.19715172e-005, -1.85760320e-004, 5.76668390e-006,
          -1.74308574e-004, 1.62672823e-005, -1.50654407e-004,
          -6.22953157e-005, -2.01170216e-004, -1.05389872e-005,
          -1.74385073e-004, -4.05132341e-005, -1.27233769e-004,
          4.17009323e-005, -1.74970512e-004, 3.08334563e-007,
          -1.70127998e-004, -2.81197044e-005, -1.53341825e-004,
          2.28467237e-004, 3.27093294e-004, 3.14178724e-005,
          -7.02300604e-005, -4.87193174e-005, -2.02004507e-004,
          8.65542461e-006, -2.23698400e-004, 4.40847652e-005,
          -2.57481355e-004, -5.75589147e-005, -1.33590467e-004,
          -3.21750791e-004, 2.14188607e-004, -9.20645325e-005,
          -1.27504085e-004, 5.97393155e-005, -1.87698315e-004,
          7.90875947e-006, -1.86303223e-004, -1.53036963e-005,
          -1.26434083e-004, 6.77558201e-005, -3.04455280e-005,
          2.07494624e-004, 1.82331569e-004, -5.85241214e-005,
          -1.16913172e-004, -5.10055827e-007, -1.46719569e-004,
          3.98256052e-005, -1.45052778e-004, -2.87400384e-004,
          8.79062209e-005, 2.44054336e-005, -2.43475995e-004,
          4.76060495e-006, -2.30064077e-004, -4.00374738e-005,
          -1.88217615e-004, 1.11204199e-005, 4.05927385e-005,
          -3.90682435e-005, 2.28660629e-005, 7.57328380e-005,
          -1.40251018e-006, 9.52800474e-006, 1.00492362e-005,
          2.00286049e-005, 3.37034035e-005, -5.85339949e-005,
          -1.68124079e-005, -6.77766548e-006, 9.97274674e-006,
          -3.67519133e-005, 5.71240489e-005, 4.54622532e-005,
          9.38729681e-006, 4.06965592e-006, 1.42298231e-005,
          -2.43583836e-005, 3.10159885e-005, 2.32228558e-004,
          5.11451100e-004, 3.51791932e-005, 1.14127753e-004,
          -4.49579966e-005, -1.76466910e-005, 1.24167464e-005,
          -3.93405899e-005, 4.78460897e-005, -7.31235268e-005,
          -5.37975902e-005, 5.07673431e-005, -3.17989470e-004,
          3.98546428e-004, -8.83032117e-005, 5.68537253e-005,
          6.35006363e-005, -3.34049992e-006, 1.16700803e-005,
          -1.94540166e-006, -1.15423745e-005, 5.79237312e-005,
          7.15171409e-005, 1.53912290e-004, 2.11255945e-004,
          3.66689375e-004, -5.47628006e-005, 6.74446419e-005,
          3.25126553e-006, 3.76382450e-005, 4.35869260e-005,
          3.93050359e-005, -2.83639063e-004, 2.72264035e-004,
          2.81667544e-005, -5.91181815e-005, 8.52192625e-006,
          -4.57062561e-005, -3.62761530e-005, -3.85979592e-006,
          -5.01886643e-005, -1.77266757e-005, 6.46124172e-005,
          -4.19952485e-005, -1.59241483e-006, -3.05435024e-005,
          8.90818501e-006, -6.88933324e-006, -6.96544157e-005,
          -5.74051483e-005, -1.78980845e-005, -3.06199909e-005,
          -4.78723341e-005, 1.65313122e-005, 3.43418324e-005,
          -3.12054435e-005, -7.05076400e-006, -2.63629154e-005,
          -3.54788026e-005, -9.57675184e-006, 2.21108130e-004,
          4.70858387e-004, 2.40587724e-005, 7.35350186e-005,
          -5.60784138e-005, -5.82394277e-005, 1.29632599e-006,
          -7.99333284e-005, 3.67256689e-005, -1.13716262e-004,
          -6.49180147e-005, 1.01746064e-005, -3.29109869e-004,
          3.57953686e-004, -9.94236325e-005, 1.62609867e-005,
          5.23802155e-005, -4.39332398e-005, 5.49660626e-007,
          -4.25381404e-005, -2.26627944e-005, 1.73309927e-005,
          6.03967201e-005, 1.13319547e-004, 2.00135531e-004,
          3.26096633e-004, -6.58832214e-005, 2.68519052e-005,
          -7.86915462e-006, -2.95449468e-006, 3.24665052e-005,
          -1.28770353e-006, -2.94759491e-004, 2.31671293e-004,
          1.70463336e-005, -9.97109237e-005, -2.59849367e-006,
          -8.62989982e-005, -4.73965738e-005, -4.44525358e-005,
          1.14801078e-004, -2.42685728e-005, 4.85962482e-005,
          -1.28168267e-005, 5.90968484e-005, 1.08373424e-005,
          -1.94657532e-005, -3.96784708e-005, 3.22905762e-005,
          -1.28933161e-005, 2.31632839e-006, 3.42579879e-005,
          8.45304967e-005, -1.34787670e-005, 4.31378976e-005,
          -8.63623973e-006, 1.47098599e-005, 8.14992381e-006,
          2.71296798e-004, 4.88585036e-004, 7.42474367e-005,
          9.12616961e-005, -5.88975217e-006, -4.05127539e-005,
          5.14849889e-005, -6.22066509e-005, 8.69143332e-005,
          -9.59895915e-005, -1.47293485e-005, 2.79012820e-005,
          -2.78921216e-004, 3.75680364e-004, -4.92349682e-005,
          3.39876606e-005, 1.02568876e-004, -2.62065623e-005,
          5.07383229e-005, -2.48114648e-005, 2.75258681e-005,
          3.50576665e-005, 1.10585381e-004, 1.31046225e-004,
          2.50324199e-004, 3.43823311e-004, -1.56945589e-005,
          4.45785809e-005, 4.23195088e-005, 1.47721803e-005,
          8.26551695e-005, 1.64389712e-005, -2.44570809e-004,
          2.49397970e-004, 6.72349997e-005, -8.19842462e-005,
          4.75901688e-005, -6.85723207e-005, 2.79209007e-006,
          -2.67258583e-005, -6.62048333e-005, 1.14517461e-005,
          -5.57042295e-005, 3.51059134e-005, -1.34266826e-004,
          -1.54098980e-005, -8.25105017e-005, 1.13752567e-005,
          -1.12484748e-004, 5.85265589e-005, -3.02705812e-005,
          1.07898068e-005, -7.16631766e-005, 1.56323331e-005,
          -1.00091216e-004, 3.24184984e-005, 1.56495720e-004,
          5.12853614e-004, -4.05536412e-005, 1.15530267e-004,
          -1.20690827e-004, -1.62441811e-005, -6.33160889e-005,
          -3.79380799e-005, -2.78867465e-005, -7.17210132e-005,
          -1.29530425e-004, 5.21698566e-005, -3.93722294e-004,
          3.99948913e-004, -1.64036042e-004, 5.82562352e-005,
          -1.22321999e-005, -1.93798974e-006, -6.40627550e-005,
          -5.42891485e-007, -8.72752062e-005, 5.93262412e-005,
          -4.21569621e-006, 1.55314789e-004, 1.35523107e-004,
          3.68091889e-004, -1.30495639e-004, 6.88471555e-005,
          -7.24815691e-005, 3.90407549e-005, -3.21459083e-005,
          4.07075458e-005, -3.59371887e-004, 2.73666548e-004,
          -4.75660818e-005, -5.77156716e-005, -6.72109090e-005,
          -4.43037461e-005, -1.12008987e-004, -2.45728575e-006,
          1.05005993e-005, 2.36541691e-005, -6.80619996e-005,
          -2.68616459e-005, -1.63056702e-005, -7.64898616e-008,
          -4.62799180e-005, 4.70748128e-005, 3.59342484e-005,
          -6.61939964e-007, -5.45834928e-006, 4.18058653e-006,
          -3.38863865e-005, 2.09667505e-005, 2.22700546e-004,
          5.01401897e-004, 2.56511885e-005, 1.04078521e-004,
          -5.44860013e-005, -2.76959272e-005, 2.88874071e-006,
          -4.93898260e-005, 3.83180814e-005, -8.31727666e-005,
          -6.33255986e-005, 4.07181069e-005, -3.27517482e-004,
          3.88497167e-004, -9.78312164e-005, 4.68044891e-005,
          5.39726316e-005, -1.33897365e-005, 2.14207535e-006,
          -1.19946380e-005, -2.10703802e-005, 4.78744951e-005,
          6.19891362e-005, 1.43863042e-004, 2.01727948e-004,
          3.56640143e-004, -6.42908053e-005, 5.73954094e-005,
          -6.27673944e-006, 2.75890070e-005, 3.40589213e-005,
          2.92557979e-005, -2.93167075e-004, 2.62214802e-004,
          1.86387497e-005, -6.91674213e-005, -1.00607883e-006,
          -5.57554922e-005, -4.58041577e-005, -1.39090325e-005,
          -7.85626034e-005, -5.05158132e-005, -2.68062704e-005,
          -2.37306576e-005, -5.67805182e-005, 2.34206454e-005,
          2.54336501e-005, -2.43161085e-005, -1.59589490e-005,
          -1.94735821e-005, -4.43869867e-005, -2.68741815e-006,
          2.12199957e-004, 4.77747701e-004, 1.51505883e-005,
          8.04243537e-005, -6.49865979e-005, -5.13500963e-005,
          -7.61185856e-006, -7.30439933e-005, 2.78174830e-005,
          -1.06826934e-004, -7.38261951e-005, 1.70639396e-005,
          -3.38018057e-004, 3.64842999e-004, -1.08331820e-004,
          2.31503200e-005, 4.34720314e-005, -3.70439047e-005,
          -8.35852370e-006, -3.56488054e-005, -3.15709804e-005,
          2.42203259e-005, 5.14885323e-005, 1.20208882e-004,
          1.91227344e-004, 3.32985976e-004, -7.47914091e-005,
          3.37412384e-005, -1.67773396e-005, 3.93483879e-006,
          2.35583229e-005, 5.60162971e-006, -3.03667679e-004,
          2.38560635e-004, 8.13814950e-006, -9.28215886e-005,
          -1.15066778e-005, -7.94096632e-005, -5.63047579e-005,
          -3.75632007e-005, 5.17563312e-005, 2.67851556e-005,
          2.17820816e-005, 7.39364550e-005, 1.03996252e-004,
          2.61997047e-005, 6.26036490e-005, 3.10422329e-005,
          3.41756131e-005, 4.78283946e-005, 2.90762546e-004,
          5.28263510e-004, 9.37131917e-005, 1.30940170e-004,
          1.35760010e-005, -8.34281821e-007, 7.09507440e-005,
          -2.25281819e-005, 1.06380081e-004, -5.63111171e-005,
          4.73640466e-006, 6.75797564e-005, -2.59455468e-004,
          4.15358838e-004, -2.97692168e-005, 7.36661314e-005,
          1.22034631e-004, 1.34719094e-005, 7.02040779e-005,
          1.48670069e-005, 4.69916231e-005, 7.47361410e-005,
          1.30051136e-004, 1.70724699e-004, 2.69789947e-004,
          3.83501785e-004, 3.77119454e-006, 8.42570516e-005,
          6.17852638e-005, 5.44506511e-005, 1.02120925e-004,
          5.61174420e-005, -2.25105076e-004, 2.89076444e-004,
          8.67007475e-005, -4.23057718e-005, 6.70559239e-005,
          -2.88938481e-005, 2.22578437e-005, 1.29526134e-005,
          -2.99742496e-005, 4.71513049e-005, 5.22399205e-005,
          -5.85450096e-007, 1.08473214e-005, 4.25707640e-006,
          -1.75807181e-005, 2.10432408e-005, 2.39006215e-004,
          5.01478382e-004, 4.19568569e-005, 1.04155006e-004,
          -3.81803293e-005, -2.76194369e-005, 1.91944109e-005,
          -4.93133375e-005, 5.46237534e-005, -8.30962745e-005,
          -4.70199266e-005, 4.07945990e-005, -3.11211799e-004,
          3.88573681e-004, -8.15255480e-005, 4.68809776e-005,
          7.02783000e-005, -1.33132462e-005, 1.84477467e-005,
          -1.19181477e-005, -4.76470905e-006, 4.79509836e-005,
          7.82948046e-005, 1.43939542e-004, 2.18033616e-004,
          3.56716628e-004, -4.79851369e-005, 5.74718979e-005,
          1.00289308e-005, 2.76654973e-005, 5.03645933e-005,
          2.93322882e-005, -2.76861392e-004, 2.62291287e-004,
          3.49444199e-005, -6.90909292e-005, 1.52995926e-005,
          -5.56790037e-005, -2.94984875e-005, -1.38325422e-005,
          8.22141665e-005, -4.77367539e-005, 4.08215710e-005,
          -4.28942258e-005, 1.23935315e-005, -2.61080622e-005,
          2.68980482e-004, 4.54327062e-004, 7.19311065e-005,
          5.70037046e-005, -8.20608057e-006, -7.47707381e-005,
          4.91686587e-005, -9.64646388e-005, 8.45980030e-005,
          -1.30247572e-004, -1.70456769e-005, -6.35670494e-006,
          -2.81237561e-004, 3.41422361e-004, -5.15512984e-005,
          -2.70324875e-007, 1.00252553e-004, -6.04645502e-005,
          4.84219963e-005, -5.90694508e-005, 2.52095397e-005,
          7.99681231e-007, 1.08269051e-004, 9.67882370e-005,
          2.48007855e-004, 3.09565337e-004, -1.80108873e-005,
          1.03205948e-005, 4.00031786e-005, -1.94858058e-005,
          8.03388393e-005, -1.78190148e-005, -2.46887153e-004,
          2.15139982e-004, 6.49186695e-005, -1.16242234e-004,
          4.52738423e-005, -1.02830309e-004, 4.75761539e-007,
          -6.09838462e-005, -4.13925991e-005, 4.84252632e-006,
          -6.98206350e-005, 2.16286899e-005, 1.86766309e-004,
          5.02063835e-004, -1.02830609e-005, 1.04740458e-004,
          -9.04202461e-005, -2.70339879e-005, -3.30455077e-005,
          -4.87278885e-005, 2.38383427e-006, -8.25108218e-005,
          -9.92598434e-005, 4.13800481e-005, -3.63451720e-004,
          3.89159133e-004, -1.33765468e-004, 4.74664303e-005,
          1.80383813e-005, -1.27277963e-005, -3.37921738e-005,
          -1.13326978e-005, -5.70046286e-005, 4.85364362e-005,
          2.60548841e-005, 1.44524995e-004, 1.65793695e-004,
          3.57302080e-004, -1.00225057e-004, 5.80573469e-005,
          -4.22109879e-005, 2.82509482e-005, -1.87532737e-006,
          2.99177391e-005, -3.29101313e-004, 2.62876740e-004,
          -1.72954988e-005, -6.85054765e-005, -3.69403278e-005,
          -5.50935547e-005, -8.17384062e-005, -1.32470923e-005,
          -2.84280395e-005, 1.67861635e-005, 2.28158897e-004,
          4.97221306e-004, 3.11095355e-005, 9.98979303e-005,
          -4.90276507e-005, -3.18765124e-005, 8.34709044e-006,
          -5.35704130e-005, 4.37764320e-005, -8.73533500e-005,
          -5.78672480e-005, 3.65375236e-005, -3.22059117e-004,
          3.84316605e-004, -9.23728658e-005, 4.26239021e-005,
          5.94309786e-005, -1.75703226e-005, 7.60042440e-006,
          -1.61752250e-005, -1.56120295e-005, 4.36939081e-005,
          6.74474795e-005, 1.39682466e-004, 2.07186298e-004,
          3.52459552e-004, -5.88324583e-005, 5.32148224e-005,
          -8.18390390e-007, 2.34084200e-005, 3.95172719e-005,
          2.50752128e-005, -2.87708710e-004, 2.58034212e-004,
          2.40970985e-005, -7.33480047e-005, 4.45227033e-006,
          -5.99360792e-005, -4.03458071e-005, -1.80896186e-005,
          2.56586936e-004, 4.80435119e-004, 5.95375750e-005,
          8.31117723e-005, -2.05996112e-005, -4.86626777e-005,
          3.67751309e-005, -7.03565747e-005, 7.22044715e-005,
          -1.04139515e-004, -2.94392084e-005, 1.97513582e-005,
          -2.93631078e-004, 3.67530418e-004, -6.39448263e-005,
          2.58377386e-005, 8.78590217e-005, -3.43564861e-005,
          3.60284648e-005, -3.29613868e-005, 1.28160091e-005,
          2.69077445e-005, 9.58755190e-005, 1.22896294e-004,
          2.35614323e-004, 3.35673394e-004, -3.04044188e-005,
          3.64286570e-005, 2.76096489e-005, 6.62225693e-006,
          6.79453078e-005, 8.28904831e-006, -2.59280670e-004,
          2.41248053e-004, 5.25251380e-005, -9.01341700e-005,
          3.28803108e-005, -7.67222446e-005, -1.19177694e-005,
          -3.48757821e-005, -1.97049361e-004, -3.97323369e-004,
          -2.77186540e-004, -5.29097801e-004, -2.19811816e-004,
          -5.50791679e-004, -1.84382472e-004, -5.84574649e-004,
          -2.86026159e-004, -4.60683776e-004, -5.50218043e-004,
          -1.12904694e-004, -3.20531777e-004, -4.54597379e-004,
          -1.68727915e-004, -5.14791638e-004, -2.20558475e-004,
          -5.13396517e-004, -2.43770934e-004, -4.53527377e-004,
          -1.60711425e-004, -3.57538840e-004, -2.09726095e-005,
          -1.44761740e-004, -2.86991359e-004, -4.44006466e-004,
          -2.28977297e-004, -4.73812863e-004, -1.88641628e-004,
          -4.72146086e-004, -5.15867607e-004, -2.39187080e-004,
          -2.04061798e-004, -5.70569304e-004, -2.23706636e-004,
          -5.57157386e-004, -2.68504722e-004, -5.15310909e-004,
          -8.01371862e-005, -1.31774446e-004, -2.27624478e-005,
          -1.53468340e-004, 1.26668956e-005, -1.87251280e-004,
          -8.89767834e-005, -6.33604141e-005, -3.53168667e-004,
          2.84418667e-004, -1.23482401e-004, -5.72740319e-005,
          2.83214431e-005, -1.17468255e-004, -2.35091120e-005,
          -1.16073155e-004, -4.67215687e-005, -5.62040259e-005,
          3.63379440e-005, 3.97845288e-005, 1.76076748e-004,
          2.52561615e-004, -8.99419974e-005, -4.66831116e-005,
          -3.19279279e-005, -7.64895085e-005, 8.40773373e-006,
